<?xml version="1.0"?>
<opencv_storage>
<stage19>
  <maxWeakCount>17</maxWeakCount>
  <stageThreshold>-1.2076156139373779e+00</stageThreshold>
  <weakClassifiers>
    <_>
      <internalNodes>
        0 -1 62556 3.1509171240031719e-03</internalNodes>
      <leafValues>
        -2.8062015771865845e-01 5.8006232976913452e-01</leafValues></_>
    <_>
      <internalNodes>
        0 -1 106178 -4.3166452087461948e-05</internalNodes>
      <leafValues>
        4.6073570847511292e-01 -3.1827849149703979e-01</leafValues></_>
    <_>
      <internalNodes>
        0 -1 59277 -3.4625083208084106e-04</internalNodes>
      <leafValues>
        3.0908975005149841e-01 -5.1773422956466675e-01</leafValues></_>
    <_>
      <internalNodes>
        0 -1 99127 2.0518162637017667e-04</internalNodes>
      <leafValues>
        2.2887676954269409e-01 -6.7623275518417358e-01</leafValues></_>
    <_>
      <internalNodes>
        0 -1 26712 2.6886733248829842e-03</internalNodes>
      <leafValues>
        -2.6249876618385315e-01 6.1830049753189087e-01</leafValues></_>
    <_>
      <internalNodes>
        0 -1 76255 -3.6140994779998437e-05</internalNodes>
      <leafValues>
        2.1696309745311737e-01 -6.2024980783462524e-01</leafValues></_>
    <_>
      <internalNodes>
        0 -1 100553 -1.2989637907594442e-03</internalNodes>
      <leafValues>
        8.3977931737899780e-01 -2.0013253390789032e-01</leafValues></_>
    <_>
      <internalNodes>
        0 -1 123051 -3.6652912967838347e-04</internalNodes>
      <leafValues>
        -7.9750537872314453e-01 1.9969937205314636e-01</leafValues></_>
    <_>
      <internalNodes>
        0 -1 50646 -4.8807030543684959e-04</internalNodes>
      <leafValues>
        6.7694044113159180e-01 -2.6760774850845337e-01</leafValues></_>
    <_>
      <internalNodes>
        0 -1 87136 2.3414408788084984e-03</internalNodes>
      <leafValues>
        -3.4265187382698059e-01 5.9103798866271973e-01</leafValues></_>
    <_>
      <internalNodes>
        0 -1 99022 1.1679276358336210e-03</internalNodes>
      <leafValues>
        -1.8760792911052704e-01 8.1502348184585571e-01</leafValues></_>
    <_>
      <internalNodes>
        0 -1 69605 4.4838272151537240e-04</internalNodes>
      <leafValues>
        2.0166160166263580e-01 -9.1938400268554688e-01</leafValues></_>
    <_>
      <internalNodes>
        0 -1 70059 -1.5947063220664859e-03</internalNodes>
      <leafValues>
        3.5043159127235413e-01 -4.3554848432540894e-01</leafValues></_>
    <_>
      <internalNodes>
        0 -1 83973 1.8287211423739791e-04</internalNodes>
      <leafValues>
        2.5520026683807373e-01 -5.4903888702392578e-01</leafValues></_>
    <_>
      <internalNodes>
        0 -1 143664 -9.6192967612296343e-04</internalNodes>
      <leafValues>
        4.2835712432861328e-01 -3.3626911044120789e-01</leafValues></_>
    <_>
      <internalNodes>
        0 -1 140984 -4.7327810898423195e-04</internalNodes>
      <leafValues>
        4.3639364838600159e-01 -4.0310794115066528e-01</leafValues></_>
    <_>
      <internalNodes>
        0 -1 76929 -1.1710188118740916e-04</internalNodes>
      <leafValues>
        4.9267467856407166e-01 -3.8555681705474854e-01</leafValues></_></weakClassifiers></stage19>
</opencv_storage>
