<?xml version="1.0"?>
<opencv_storage>
<cascade>
  <stageType>BOOST</stageType>
  <featureType>LBP</featureType>
  <height>18</height>
  <width>24</width>
  <stageParams>
    <boostType>GAB</boostType>
    <minHitRate>9.9900001287460327e-01</minHitRate>
    <maxFalseAlarm>5.0000000000000000e-01</maxFalseAlarm>
    <weightTrimRate>9.4999999999999996e-01</weightTrimRate>
    <maxDepth>1</maxDepth>
    <maxWeakCount>100</maxWeakCount></stageParams>
  <featureParams>
    <maxCatCount>256</maxCatCount>
    <featSize>1</featSize></featureParams>
  <stageNum>21</stageNum>
  <stages>
    <!-- stage 0 -->
    <_>
      <maxWeakCount>3</maxWeakCount>
      <stageThreshold>-8.0849713087081909e-01</stageThreshold>
      <weakClassifiers>
        <_>
          <internalNodes>
            0 -1 20 -513 -536870913 2147483647 -33554945 -1 -1
            2139095039 1061158911</internalNodes>
          <leafValues>
            -8.3894389867782593e-01 9.2830818891525269e-01</leafValues></_>
        <_>
          <internalNodes>
            0 -1 18 -570433537 1073729535 -531 -1086611778 1040179161
            -4194435 -1077936712 -13902840</internalNodes>
          <leafValues>
            -6.9969385862350464e-01 8.3097070455551147e-01</leafValues></_>
        <_>
          <internalNodes>
            0 -1 116 -142606341 -639953191 -987052581 -585907213
            -635969813 117682314 1670073343 1461449695</internalNodes>
          <leafValues>
            -8.0052393674850464e-01 7.6203882694244385e-01</leafValues></_></weakClassifiers></_>
    <!-- stage 1 -->
    <_>
      <maxWeakCount>3</maxWeakCount>
      <stageThreshold>-9.4328898191452026e-01</stageThreshold>
      <weakClassifiers>
        <_>
          <internalNodes>
            0 -1 57 -524289 -134217729 -1375739907 -536871425 -524289 -1
            -134217729 1073741823</internalNodes>
          <leafValues>
            -8.1647688150405884e-01 9.0422350168228149e-01</leafValues></_>
        <_>
          <internalNodes>
            0 -1 37 1948253695 492232011 1364306367 1596792091
            -1718756609 1519108267 94047663 186321195</internalNodes>
          <leafValues>
            -8.9785575866699219e-01 7.0869439840316772e-01</leafValues></_>
        <_>
          <internalNodes>
            0 -1 101 -134218245 -570434053 293328127 1572688733
            -813965057 -79436210 -506754069 1609293467</internalNodes>
          <leafValues>
            -7.2219479084014893e-01 7.7104359865188599e-01</leafValues></_></weakClassifiers></_>
    <!-- stage 2 -->
    <_>
      <maxWeakCount>5</maxWeakCount>
      <stageThreshold>-7.6142972707748413e-01</stageThreshold>
      <weakClassifiers>
        <_>
          <internalNodes>
            0 -1 38 -1 -2065 2147482623 -53505 -134217793 -49409
            -2097217 -61249</internalNodes>
          <leafValues>
            -6.6625612974166870e-01 8.9777469635009766e-01</leafValues></_>
        <_>
          <internalNodes>
            0 -1 10 -112331777 2133140881 1435598303 1572467159
            -560342017 -67428182 -644093441 529480447</internalNodes>
          <leafValues>
            -7.1213740110397339e-01 7.3629462718963623e-01</leafValues></_>
        <_>
          <internalNodes>
            0 -1 107 -1 -545546785 -950799109 -1218480769 -242494549
            1490785275 1830089727 1610608383</internalNodes>
          <leafValues>
            -6.7936843633651733e-01 7.3805183172225952e-01</leafValues></_>
        <_>
          <internalNodes>
            0 -1 129 -1431569473 -1146422674 -1 1069547519 -1 -137
            -41945604 -513</internalNodes>
          <leafValues>
            -5.9304869174957275e-01 7.5171262025833130e-01</leafValues></_>
        <_>
          <internalNodes>
            0 -1 120 2079735807 -78585027 -251428425 1940545680
            -620178505 -116580190 2133355518 -230402</internalNodes>
          <leafValues>
            -7.8928643465042114e-01 5.4461967945098877e-01</leafValues></_></weakClassifiers></_>
    <!-- stage 3 -->
    <_>
      <maxWeakCount>5</maxWeakCount>
      <stageThreshold>-1.0903897285461426e+00</stageThreshold>
      <weakClassifiers>
        <_>
          <internalNodes>
            0 -1 45 -134283229 -1 -134250505 -50110333 -1679835201
            -41180213 -85 -6291457</internalNodes>
          <leafValues>
            -6.8297725915908813e-01 8.1698918342590332e-01</leafValues></_>
        <_>
          <internalNodes>
            0 -1 73 -10751049 -149712623 -1856302793 -1086369421
            -1702380609 -1123315165 -116654081 1421867839</internalNodes>
          <leafValues>
            -7.6782649755477905e-01 6.8208444118499756e-01</leafValues></_>
        <_>
          <internalNodes>
            0 -1 115 -540016641 -145238637 1409897471 -546056873
            -74714678 -1154411347 1220664239 2136988655</internalNodes>
          <leafValues>
            -7.3327553272247314e-01 6.1331647634506226e-01</leafValues></_>
        <_>
          <internalNodes>
            0 -1 27 -1790983745 -1089843045 -1658922787 -537145971
            -620525363 2142931675 -100479064 -13903480</internalNodes>
          <leafValues>
            -7.5194817781448364e-01 6.0037720203399658e-01</leafValues></_>
        <_>
          <internalNodes>
            0 -1 127 -36439301 -178466178 -853454177 -142097577
            1292943790 19488774 536906123 861622363</internalNodes>
          <leafValues>
            -7.6761817932128906e-01 4.9904564023017883e-01</leafValues></_></weakClassifiers></_>
    <!-- stage 4 -->
    <_>
      <maxWeakCount>6</maxWeakCount>
      <stageThreshold>-6.6883933544158936e-01</stageThreshold>
      <weakClassifiers>
        <_>
          <internalNodes>
            0 -1 5 -134217729 -16777217 -2097153 -271361 -1 -131073
            -2097153 2147483647</internalNodes>
          <leafValues>
            -6.9992381334304810e-01 7.5902104377746582e-01</leafValues></_>
        <_>
          <internalNodes>
            0 -1 104 -33595393 2079981567 -131077 -67534849 -1073776641
            -574465 -134217729 -84870405</internalNodes>
          <leafValues>
            -6.0794770717620850e-01 6.5606683492660522e-01</leafValues></_>
        <_>
          <internalNodes>
            0 -1 117 -547358849 -232994893 -920978565 1567061909
            -748951809 -805273435 -213128501 1364971919</internalNodes>
          <leafValues>
            -6.9224375486373901e-01 5.7027673721313477e-01</leafValues></_>
        <_>
          <internalNodes>
            0 -1 33 -1415962320 -556846889 -233750183 -577556213
            -1349801025 -884255464 -1399943206 -725690237</internalNodes>
          <leafValues>
            -7.6888614892959595e-01 5.4352778196334839e-01</leafValues></_>
        <_>
          <internalNodes>
            0 -1 42 -82706954 936499672 -251308612 -1342532170 136153236
            1334516310 -393286672 -1796</internalNodes>
          <leafValues>
            -8.3528637886047363e-01 3.8301753997802734e-01</leafValues></_>
        <_>
          <internalNodes>
            0 -1 78 -9441285 -7875309 1229017471 1560663497 -2002063622
            1244251243 -518747157 1179374587</internalNodes>
          <leafValues>
            -7.3661321401596069e-01 4.5462402701377869e-01</leafValues></_></weakClassifiers></_>
    <!-- stage 5 -->
    <_>
      <maxWeakCount>5</maxWeakCount>
      <stageThreshold>-8.2288116216659546e-01</stageThreshold>
      <weakClassifiers>
        <_>
          <internalNodes>
            0 -1 97 391249919 467647983 -1 -1 -1 -2 -4097 -1057153</internalNodes>
          <leafValues>
            -5.7957559823989868e-01 7.9344922304153442e-01</leafValues></_>
        <_>
          <internalNodes>
            0 -1 18 -33554689 -69633 -67 -8397075 -33562661 -513
            -12582915 -13902456</internalNodes>
          <leafValues>
            -6.4124184846878052e-01 6.5344738960266113e-01</leafValues></_>
        <_>
          <internalNodes>
            0 -1 108 -545 -19432961 -592099349 1428127947 -181409041
            -880061238 1379790591 1463811327</internalNodes>
          <leafValues>
            -7.1393233537673950e-01 4.9960443377494812e-01</leafValues></_>
        <_>
          <internalNodes>
            0 -1 31 -775802869 -742304335 -511700904 -75408571
            -1609189386 -628825363 840056767 -11800081</internalNodes>
          <leafValues>
            -6.6767865419387817e-01 5.8063912391662598e-01</leafValues></_>
        <_>
          <internalNodes>
            0 -1 102 -605697 100717575 -2076147006 -1394747578
            -939470689 -628901856 -1465859968 -1716672371</internalNodes>
          <leafValues>
            -6.8230718374252319e-01 5.6798559427261353e-01</leafValues></_></weakClassifiers></_>
    <!-- stage 6 -->
    <_>
      <maxWeakCount>8</maxWeakCount>
      <stageThreshold>-1.3022069931030273e+00</stageThreshold>
      <weakClassifiers>
        <_>
          <internalNodes>
            0 -1 110 -1 -32769 -17 -1073741889 -16777217 -4194307
            -17825793 -1346371585</internalNodes>
          <leafValues>
            -5.3750860691070557e-01 7.4860519170761108e-01</leafValues></_>
        <_>
          <internalNodes>
            0 -1 116 -682370049 -274737441 -603497605 -11022505
            -599000577 -805467225 1863309295 1610599359</internalNodes>
          <leafValues>
            -6.0534900426864624e-01 6.0969519615173340e-01</leafValues></_>
        <_>
          <internalNodes>
            0 -1 74 -585115662 1599811935 -1803353094 -1080634961
            -1914989004 -1415673817 -894719748 -75010</internalNodes>
          <leafValues>
            -6.2324196100234985e-01 5.6178003549575806e-01</leafValues></_>
        <_>
          <internalNodes>
            0 -1 88 2139095037 2136045527 2147483647 -537001985
            -16777217 -33554945 -8407194 -302012689</internalNodes>
          <leafValues>
            -5.1151114702224731e-01 6.2311661243438721e-01</leafValues></_>
        <_>
          <internalNodes>
            0 -1 85 -170393857 463172060 -796290593 -169933541
            -523796001 598413678 -1852834817 1372575727</internalNodes>
          <leafValues>
            -6.6314750909805298e-01 5.2701365947723389e-01</leafValues></_>
        <_>
          <internalNodes>
            0 -1 34 -1078006277 -1681915921 -5 1069441023 -2098309
            -67117057 -4522145 -608559717</internalNodes>
          <leafValues>
            -5.3346419334411621e-01 6.0126245021820068e-01</leafValues></_>
        <_>
          <internalNodes>
            0 -1 109 -1481970765 -1440563256 -49225 -1703937 1591517126
            1044938169 -131586 -73</internalNodes>
          <leafValues>
            -5.2535450458526611e-01 5.5870896577835083e-01</leafValues></_>
        <_>
          <internalNodes>
            0 -1 114 -78390546 -647788534 1359151455 1428112359
            -2091203910 272302849 1662242845 391863295</internalNodes>
          <leafValues>
            -7.9605364799499512e-01 3.7762123346328735e-01</leafValues></_></weakClassifiers></_>
    <!-- stage 7 -->
    <_>
      <maxWeakCount>7</maxWeakCount>
      <stageThreshold>-1.0404183864593506e+00</stageThreshold>
      <weakClassifiers>
        <_>
          <internalNodes>
            0 -1 51 -1 -1076887553 -1727938561 -610926466 -2142863143
            -3495860 -1879310340 -327684</internalNodes>
          <leafValues>
            -6.4880460500717163e-01 6.9577121734619141e-01</leafValues></_>
        <_>
          <internalNodes>
            0 -1 81 -257 1567675607 -9 -3 -1610637329 720240613 -526401
            -285474817</internalNodes>
          <leafValues>
            -4.9396166205406189e-01 6.9316565990447998e-01</leafValues></_>
        <_>
          <internalNodes>
            0 -1 115 -39856129 -9190857 -1862123047 1057183079
            -449450005 -78132802 321638331 2072752047</internalNodes>
          <leafValues>
            -6.7640423774719238e-01 4.8982000350952148e-01</leafValues></_>
        <_>
          <internalNodes>
            0 -1 112 -1103894017 -225345085 -788489645 1926366715
            960547162 -89456605 -117769478 -251737361</internalNodes>
          <leafValues>
            -5.9182459115982056e-01 5.5516183376312256e-01</leafValues></_>
        <_>
          <internalNodes>
            0 -1 31 -1325063206 -212635451 287391359 1432044567
            -1207780712 -1140273470 948351411 -272667649</internalNodes>
          <leafValues>
            -6.7339849472045898e-01 4.7396576404571533e-01</leafValues></_>
        <_>
          <internalNodes>
            0 -1 50 -229123116 -1754201855 -2145361494 -1279842161
            -2117091216 1241284608 146511864 -75501449</internalNodes>
          <leafValues>
            -5.9993588924407959e-01 4.8153898119926453e-01</leafValues></_>
        <_>
          <internalNodes>
            0 -1 118 -2622353 -581743407 1359073547 1465537670
            -1400219442 -1322543541 11079807 1342645963</internalNodes>
          <leafValues>
            -7.3135375976562500e-01 4.1507202386856079e-01</leafValues></_></weakClassifiers></_>
    <!-- stage 8 -->
    <_>
      <maxWeakCount>7</maxWeakCount>
      <stageThreshold>-9.9932599067687988e-01</stageThreshold>
      <weakClassifiers>
        <_>
          <internalNodes>
            0 -1 0 -524289 -73729 2147301183 -1048577 -1082130433
            -167775489 -65537 -67142305</internalNodes>
          <leafValues>
            -4.1356140375137329e-01 7.6039117574691772e-01</leafValues></_>
        <_>
          <internalNodes>
            0 -1 135 -1430593601 -1117875008 -738144103 -1689811565
            -1023229809 -301481980 -532422549 -8921139</internalNodes>
          <leafValues>
            -5.2931380271911621e-01 5.8294469118118286e-01</leafValues></_>
        <_>
          <internalNodes>
            0 -1 96 -33562625 -107357984 -176073761 -681854377
            -1366903857 1452531823 -565208129 1407187631</internalNodes>
          <leafValues>
            -6.4507460594177246e-01 4.8153162002563477e-01</leafValues></_>
        <_>
          <internalNodes>
            0 -1 48 -1006916062 -145592175 -520039945 -250086951
            -108466064 -1844740088 -842943521 -1092893997</internalNodes>
          <leafValues>
            -7.0445978641510010e-01 4.4937235116958618e-01</leafValues></_>
        <_>
          <internalNodes>
            0 -1 60 -748957220 829308949 -468139810 -283201186
            1234799284 -1987869919 -2119268884 -71317622</internalNodes>
          <leafValues>
            -6.7754745483398438e-01 4.3473282456398010e-01</leafValues></_>
        <_>
          <internalNodes>
            0 -1 113 -213398017 -742162208 -1823238057 122939677
            -1029994001 -2059859960 545959161 322375859</internalNodes>
          <leafValues>
            -7.1069538593292236e-01 3.6583742499351501e-01</leafValues></_>
        <_>
          <internalNodes>
            0 -1 122 -2006447884 -137460073 5264145 -105061905
            -496359416 -34599381 -423852120 -588330838</internalNodes>
          <leafValues>
            -6.1608070135116577e-01 4.4246172904968262e-01</leafValues></_></weakClassifiers></_>
    <!-- stage 9 -->
    <_>
      <maxWeakCount>9</maxWeakCount>
      <stageThreshold>-1.3310818672180176e+00</stageThreshold>
      <weakClassifiers>
        <_>
          <internalNodes>
            0 -1 121 -16842757 -9502722 -268501249 -69761 2130607356
            -196610 -16842754 -285278465</internalNodes>
          <leafValues>
            -5.2695089578628540e-01 6.6165184974670410e-01</leafValues></_>
        <_>
          <internalNodes>
            0 -1 9 -759106083 -139339197 -2130656257 -49024637
            -2000667685 -331199572 -385159521 1602975735</internalNodes>
          <leafValues>
            -5.8600270748138428e-01 5.4241895675659180e-01</leafValues></_>
        <_>
          <internalNodes>
            0 -1 80 -1409630445 -1080231973 1430387199 1066914258
            -306781193 -1978040183 -359471886 -1127829607</internalNodes>
          <leafValues>
            -5.3381043672561646e-01 5.3896468877792358e-01</leafValues></_>
        <_>
          <internalNodes>
            0 -1 103 -674763265 -648160696 -1421322562 1393804205
            -972893697 -1009808758 -784230913 1464330751</internalNodes>
          <leafValues>
            -7.2199863195419312e-01 4.4545540213584900e-01</leafValues></_>
        <_>
          <internalNodes>
            0 -1 55 1100712166 -771357949 101259 -1087963005 -2002582994
            2039161090 -402323286 -1380858993</internalNodes>
          <leafValues>
            -5.3914290666580200e-01 5.2087682485580444e-01</leafValues></_>
        <_>
          <internalNodes>
            0 -1 119 -502864981 -1964749686 -787263090 -1208122981
            -1879011909 -226484096 -1727954766 -141574014</internalNodes>
          <leafValues>
            -5.8801907300949097e-01 4.1534855961799622e-01</leafValues></_>
        <_>
          <internalNodes>
            0 -1 27 297855362 285250046 -1073686193 -776122190
            -528428919 1342197897 -1323175942 -12854888</internalNodes>
          <leafValues>
            -7.1322071552276611e-01 3.0960676074028015e-01</leafValues></_>
        <_>
          <internalNodes>
            0 -1 105 -788014166 319930376 -1862057967 164857819
            -2138926659 538937743 1636794484 1069541051</internalNodes>
          <leafValues>
            -6.7437440156936646e-01 3.8890898227691650e-01</leafValues></_>
        <_>
          <internalNodes>
            0 -1 59 -1694035595 1073954824 545280900 -1073274606
            598249889 -1588395007 25297164 -21136441</internalNodes>
          <leafValues>
            -7.0601189136505127e-01 3.4116899967193604e-01</leafValues></_></weakClassifiers></_>
    <!-- stage 10 -->
    <_>
      <maxWeakCount>8</maxWeakCount>
      <stageThreshold>-1.3751862049102783e+00</stageThreshold>
      <weakClassifiers>
        <_>
          <internalNodes>
            0 -1 13 -134480387 -9461769 -8389003 -10756 1040186813
            -159392291 -8781912 -12858104</internalNodes>
          <leafValues>
            -5.4537743330001831e-01 6.4528757333755493e-01</leafValues></_>
        <_>
          <internalNodes>
            0 -1 106 861731295 -1664422757 -1073709040 -251473917
            4374658 -1711243228 -1031550551 -1141119381</internalNodes>
          <leafValues>
            -6.3238459825515747e-01 4.8600849509239197e-01</leafValues></_>
        <_>
          <internalNodes>
            0 -1 86 -779627809 -1861143527 277090783 1362580111
            -878974753 -1558521649 1216851455 1594874831</internalNodes>
          <leafValues>
            -6.3787239789962769e-01 4.5556339621543884e-01</leafValues></_>
        <_>
          <internalNodes>
            0 -1 28 -37753447 -609222673 -1078001666 1593507839
            -75498021 -1744865283 -897843745 -1715798561</internalNodes>
          <leafValues>
            -4.6916106343269348e-01 5.4126816987991333e-01</leafValues></_>
        <_>
          <internalNodes>
            0 -1 79 -5835788 354529653 -2147438584 -41836157 -2063482751
            2139324544 -2046820277 -1383462485</internalNodes>
          <leafValues>
            -6.0008418560028076e-01 4.1461497545242310e-01</leafValues></_>
        <_>
          <internalNodes>
            0 -1 61 2076172287 -740959536 1228249239 295522773
            -1529038881 -1517613043 -1033213252 1608507097</internalNodes>
          <leafValues>
            -6.1900007724761963e-01 3.7920525670051575e-01</leafValues></_>
        <_>
          <internalNodes>
            0 -1 100 455500555 1912843215 -1064898251 -619804977
            -494368069 -543112949 -963206993 -235744833</internalNodes>
          <leafValues>
            -5.0255393981933594e-01 5.0336980819702148e-01</leafValues></_>
        <_>
          <internalNodes>
            0 -1 3 129058475 -1412114147 285295296 -210144047 1368688821
            278440081 -357769931 -1208751499</internalNodes>
          <leafValues>
            -4.8821252584457397e-01 4.9815526604652405e-01</leafValues></_></weakClassifiers></_>
    <!-- stage 11 -->
    <_>
      <maxWeakCount>8</maxWeakCount>
      <stageThreshold>-1.6197857856750488e+00</stageThreshold>
      <weakClassifiers>
        <_>
          <internalNodes>
            0 -1 68 -184549425 -20743 -65553 -336126218 -169 -86017
            -17033 -50433</internalNodes>
          <leafValues>
            -4.5583596825599670e-01 6.4294552803039551e-01</leafValues></_>
        <_>
          <internalNodes>
            0 -1 107 -538969349 -746064978 410077175 1399530261
            -612639493 -804692547 -4079621 2147216383</internalNodes>
          <leafValues>
            -6.1470967531204224e-01 5.2690201997756958e-01</leafValues></_>
        <_>
          <internalNodes>
            0 -1 70 -796671863 -206929151 -2097020733 2113995522
            956539266 -1190624766 151628427 -591425621</internalNodes>
          <leafValues>
            -5.9710603952407837e-01 4.6121454238891602e-01</leafValues></_>
        <_>
          <internalNodes>
            0 -1 26 -1517224192 151258644 -1008362700 -218000507
            -259458160 -1094156152 -201136128 -409221479</internalNodes>
          <leafValues>
            -6.5464991331100464e-01 4.2046073079109192e-01</leafValues></_>
        <_>
          <internalNodes>
            0 -1 75 -1621108293 2105136123 324026879 2002471807
            -401767751 9634643 42158575 1594872763</internalNodes>
          <leafValues>
            -6.4719891548156738e-01 3.5021764039993286e-01</leafValues></_>
        <_>
          <internalNodes>
            0 -1 23 -4260159 -33603460 -1 1937723124 -1548042305
            -1140916289 -1158217793 -1151338501</internalNodes>
          <leafValues>
            -4.4338446855545044e-01 6.0083687305450439e-01</leafValues></_>
        <_>
          <internalNodes>
            0 -1 132 537043588 941106948 -1053642735 -23832553
            1758318117 -607501687 -1433746294 -235143536</internalNodes>
          <leafValues>
            -7.0298331975936890e-01 3.6676067113876343e-01</leafValues></_>
        <_>
          <internalNodes>
            0 -1 47 2001229471 2034277280 -749416073 1569505683
            -800855351 983615650 -517762615 1393062751</internalNodes>
          <leafValues>
            -7.0709264278411865e-01 3.1361147761344910e-01</leafValues></_></weakClassifiers></_>
    <!-- stage 12 -->
    <_>
      <maxWeakCount>8</maxWeakCount>
      <stageThreshold>-1.6063969135284424e+00</stageThreshold>
      <weakClassifiers>
        <_>
          <internalNodes>
            0 -1 36 -536870913 -131073 -5 -2051 -3 -3 -4194308 -5571592</internalNodes>
          <leafValues>
            -4.8534202575683594e-01 6.4058679342269897e-01</leafValues></_>
        <_>
          <internalNodes>
            0 -1 128 -136316965 -244852429 -1992949801 -682142121
            -99817540 1518524313 -787625578 1396429723</internalNodes>
          <leafValues>
            -5.5595117807388306e-01 4.9081873893737793e-01</leafValues></_>
        <_>
          <internalNodes>
            0 -1 65 -242227456 -49430271 -775826576 -79607115 -846683738
            -637499264 2143056615 -373364085</internalNodes>
          <leafValues>
            -5.9169727563858032e-01 4.8900127410888672e-01</leafValues></_>
        <_>
          <internalNodes>
            0 -1 125 -447425142 -2122283648 1364542736 -1076899659
            1073909832 -1837072384 -926660455 -34874737</internalNodes>
          <leafValues>
            -5.7112294435501099e-01 4.5314186811447144e-01</leafValues></_>
        <_>
          <internalNodes>
            0 -1 22 -796896654 -1862118696 -1073657840 -1014693879
            -2133213733 -402595676 994753239 -57936062</internalNodes>
          <leafValues>
            -5.9678763151168823e-01 4.3120458722114563e-01</leafValues></_>
        <_>
          <internalNodes>
            0 -1 77 -168822277 -111553329 1090635775 -411034925
            -977015560 1233768488 -1584932609 400292442</internalNodes>
          <leafValues>
            -6.6671836376190186e-01 3.6012223362922668e-01</leafValues></_>
        <_>
          <internalNodes>
            0 -1 93 1944830122 -1819376882 -2138882026 -551629434
            -1509211993 -2147020793 768249594 -143480042</internalNodes>
          <leafValues>
            -6.1304229497909546e-01 4.0557119250297546e-01</leafValues></_>
        <_>
          <internalNodes>
            0 -1 136 -736073104 1109451138 -1576947582 -1483681680
            -1019215744 -791522944 -998665954 -291046594</internalNodes>
          <leafValues>
            -7.0649677515029907e-01 3.0196702480316162e-01</leafValues></_></weakClassifiers></_>
    <!-- stage 13 -->
    <_>
      <maxWeakCount>10</maxWeakCount>
      <stageThreshold>-1.1862410306930542e+00</stageThreshold>
      <weakClassifiers>
        <_>
          <internalNodes>
            0 -1 52 -1075177539 -33597441 -8388609 -16385 -1074872325
            -32833 -33 -33</internalNodes>
          <leafValues>
            -2.9253366589546204e-01 6.9016051292419434e-01</leafValues></_>
        <_>
          <internalNodes>
            0 -1 87 -39845889 -136486421 1426127327 1113965131
            -991953925 -775689676 1585839007 1533007295</internalNodes>
          <leafValues>
            -6.0771876573562622e-01 4.8358711600303650e-01</leafValues></_>
        <_>
          <internalNodes>
            0 -1 83 -134217745 -67241985 -1375736065 -134217737
            -50331729 -1073742337 -295185 -235143681</internalNodes>
          <leafValues>
            -4.8857605457305908e-01 5.3351658582687378e-01</leafValues></_>
        <_>
          <internalNodes>
            0 -1 84 1006600175 1071415295 -1147142145 -65537 -37871759
            -147 -16810568 -67841</internalNodes>
          <leafValues>
            -3.7357649207115173e-01 5.8274859189987183e-01</leafValues></_>
        <_>
          <internalNodes>
            0 -1 126 -543821313 -2887209 51546395 1560671059 -81679994
            523390987 1135028651 2012213663</internalNodes>
          <leafValues>
            -6.2585914134979248e-01 3.5483992099761963e-01</leafValues></_>
        <_>
          <internalNodes>
            0 -1 90 -136323073 1599406039 -4097 -35 -1098911793
            747437936 -1082136584 -274760100</internalNodes>
          <leafValues>
            -4.6687462925910950e-01 5.2862066030502319e-01</leafValues></_>
        <_>
          <internalNodes>
            0 -1 1 -13447213 -1087176713 -1350733829 -524303 -698377
            -458758 2144564475 -305168905</internalNodes>
          <leafValues>
            -3.7098684906959534e-01 5.8926850557327271e-01</leafValues></_>
        <_>
          <internalNodes>
            0 -1 137 -1431651454 -18154638 -1082959050 -709095587
            -33595917 -134250497 -50333707 -34759344</internalNodes>
          <leafValues>
            -4.6437522768974304e-01 4.9033531546592712e-01</leafValues></_>
        <_>
          <internalNodes>
            0 -1 114 -808992729 -1157143083 69808524 1574121763
            -1583880485 323031691 889301752 301927419</internalNodes>
          <leafValues>
            -7.3699820041656494e-01 3.2927289605140686e-01</leafValues></_>
        <_>
          <internalNodes>
            0 -1 58 540938312 -221724640 -749321728 -198902767
            1938300944 1886391075 -1022746588 -1295778</internalNodes>
          <leafValues>
            -6.5151679515838623e-01 3.2138079404830933e-01</leafValues></_></weakClassifiers></_>
    <!-- stage 14 -->
    <_>
      <maxWeakCount>10</maxWeakCount>
      <stageThreshold>-1.5642535686492920e+00</stageThreshold>
      <weakClassifiers>
        <_>
          <internalNodes>
            0 -1 131 724745023 -2163406 -582507233 -127 -209464821
            -1073741952 -1 -62914573</internalNodes>
          <leafValues>
            -4.8129251599311829e-01 6.2154030799865723e-01</leafValues></_>
        <_>
          <internalNodes>
            0 -1 74 2130706431 -1073742849 -1 -1342177281 -524747
            -1073807553 -16777732 -536936962</internalNodes>
          <leafValues>
            -4.6559885144233704e-01 5.1487398147583008e-01</leafValues></_>
        <_>
          <internalNodes>
            0 -1 95 -235688969 285426147 1678456317 432886097 -229385477
            1133266198 -250626053 1610603487</internalNodes>
          <leafValues>
            -6.3917946815490723e-01 3.8476702570915222e-01</leafValues></_>
        <_>
          <internalNodes>
            0 -1 49 -1518275552 -82757628 -670678888 -193414352
            -754914782 -1969645568 -401028350 -510020986</internalNodes>
          <leafValues>
            -5.3948426246643066e-01 4.3924224376678467e-01</leafValues></_>
        <_>
          <internalNodes>
            0 -1 8 -1003423773 -679358394 -1072638689 -82248333
            -250978135 9060495 -1072764197 2142237683</internalNodes>
          <leafValues>
            -5.4158884286880493e-01 3.9867258071899414e-01</leafValues></_>
        <_>
          <internalNodes>
            0 -1 92 -746389289 214139395 83886082 -2104622846
            -1576861055 17533954 167968906 -30662006</internalNodes>
          <leafValues>
            -6.2530291080474854e-01 3.3726349472999573e-01</leafValues></_>
        <_>
          <internalNodes>
            0 -1 53 -504365312 -1471311807 -114810809 2067988657
            -92096608 -1744174976 -1467526958 -994446365</internalNodes>
          <leafValues>
            -6.1360043287277222e-01 3.3880144357681274e-01</leafValues></_>
        <_>
          <internalNodes>
            0 -1 40 -964172276 1462550468 -9445547 -1883242750
            1331091437 -715726999 -576744129 -10248597</internalNodes>
          <leafValues>
            -4.6239528059959412e-01 4.9649253487586975e-01</leafValues></_>
        <_>
          <internalNodes>
            0 -1 29 1882476764 -784056191 1610965341 1964362143
            1073744637 814121160 -322222595 54198267</internalNodes>
          <leafValues>
            -5.7471877336502075e-01 3.8549867272377014e-01</leafValues></_>
        <_>
          <internalNodes>
            0 -1 139 -1324295272 -1248285356 -800472937 -1821945723
            -1266008021 -506752888 -1844868552 -1999161076</internalNodes>
          <leafValues>
            -5.5742835998535156e-01 4.3597340583801270e-01</leafValues></_></weakClassifiers></_>
    <!-- stage 15 -->
    <_>
      <maxWeakCount>10</maxWeakCount>
      <stageThreshold>-8.3268082141876221e-01</stageThreshold>
      <weakClassifiers>
        <_>
          <internalNodes>
            0 -1 15 -54526789 -4202514 -4194305 -1126914 2139086843
            -5513747 -262145 -12855912</internalNodes>
          <leafValues>
            -3.3379405736923218e-01 6.4952504634857178e-01</leafValues></_>
        <_>
          <internalNodes>
            0 -1 115 -639894577 -615291061 1426939995 -243384065
            -203700226 -373403737 61074399 2145361919</internalNodes>
          <leafValues>
            -6.1993145942687988e-01 4.0677762031555176e-01</leafValues></_>
        <_>
          <internalNodes>
            0 -1 134 -219446713 -1875701757 -1592082429 -45055739
            -1037692914 -352088061 -1832218978 -25505889</internalNodes>
          <leafValues>
            -4.5855328440666199e-01 5.0001984834671021e-01</leafValues></_>
        <_>
          <internalNodes>
            0 -1 76 -10753823 843301020 1207959569 2139672736
            -2145353592 -100548446 1208090627 1896857610</internalNodes>
          <leafValues>
            -6.7469048500061035e-01 3.2086247205734253e-01</leafValues></_>
        <_>
          <internalNodes>
            0 -1 19 -1769684784 -1136377339 1073797120 -756819883
            1207994888 134614017 -1410806622 -1683337859</internalNodes>
          <leafValues>
            -5.1758831739425659e-01 3.6982825398445129e-01</leafValues></_>
        <_>
          <internalNodes>
            0 -1 124 -753156881 2110718721 -1862056653 1447632607
            -668211974 13848760 1398508971 931096575</internalNodes>
          <leafValues>
            -7.0168530941009521e-01 3.2066097855567932e-01</leafValues></_>
        <_>
          <internalNodes>
            0 -1 64 2127560664 -264092663 -889057121 -2063531904
            1107339435 -1165326199 -1476359793 -1969223256</internalNodes>
          <leafValues>
            -4.8359090089797974e-01 4.1219222545623779e-01</leafValues></_>
        <_>
          <internalNodes>
            0 -1 56 -286265845 -218107987 2130181891 1965293511
            -1228472494 -187343035 -395313 -13123833</internalNodes>
          <leafValues>
            -3.9518362283706665e-01 4.9596041440963745e-01</leafValues></_>
        <_>
          <internalNodes>
            0 -1 62 1912142943 -744798087 -1609513349 1501762049
            -742142725 1342194003 558492329 269216191</internalNodes>
          <leafValues>
            -6.6427624225616455e-01 2.7366083860397339e-01</leafValues></_>
        <_>
          <internalNodes>
            0 -1 142 -1548206552 -1330048942 -666834598 -1436225536
            -796745718 1292207233 -500789120 -1535095676</internalNodes>
          <leafValues>
            -5.9962308406829834e-01 3.4680789709091187e-01</leafValues></_></weakClassifiers></_>
    <!-- stage 16 -->
    <_>
      <maxWeakCount>10</maxWeakCount>
      <stageThreshold>-8.9710545539855957e-01</stageThreshold>
      <weakClassifiers>
        <_>
          <internalNodes>
            0 -1 41 -268435586 -184688644 -20721 2147396287 -1075859546
            -1207982085 -58505 -42518406</internalNodes>
          <leafValues>
            -3.9949110150337219e-01 5.9349590539932251e-01</leafValues></_>
        <_>
          <internalNodes>
            0 -1 101 -708191621 -546616497 1344509311 1544143221
            -2057509137 1917316435 -552861697 1610612735</internalNodes>
          <leafValues>
            -5.8683687448501587e-01 4.0984097123146057e-01</leafValues></_>
        <_>
          <internalNodes>
            0 -1 17 -1324281820 -762748821 -1073581587 1516322889
            -1610506853 -796827648 423738056 -1077184121</internalNodes>
          <leafValues>
            -6.4281904697418213e-01 3.3557879924774170e-01</leafValues></_>
        <_>
          <internalNodes>
            0 -1 123 -900624240 1360072707 -1862201343 -805220079
            -804159193 -1869545200 1614893058 -296225345</internalNodes>
          <leafValues>
            -5.5317372083663940e-01 3.7359225749969482e-01</leafValues></_>
        <_>
          <internalNodes>
            0 -1 127 -237512449 -176740678 117557917 1459708243
            -1419134550 -879517565 302379195 1602204651</internalNodes>
          <leafValues>
            -6.4845591783523560e-01 2.8761619329452515e-01</leafValues></_>
        <_>
          <internalNodes>
            0 -1 35 1892368896 513487207 -938294342 1985642891 360849920
            1820524623 -367019152 -1229005953</internalNodes>
          <leafValues>
            -6.0872852802276611e-01 3.2692322134971619e-01</leafValues></_>
        <_>
          <internalNodes>
            0 -1 98 -1499740254 -1432745786 -1071054789 -679394047
            -1735607892 1042362886 -1601683790 -4460498</internalNodes>
          <leafValues>
            -5.6449252367019653e-01 3.7658926844596863e-01</leafValues></_>
        <_>
          <internalNodes>
            0 -1 7 -509226538 -1036808125 -1072119589 -801652205
            1811941377 1611694218 -542459889 -72716529</internalNodes>
          <leafValues>
            -4.5542982220649719e-01 4.9594074487686157e-01</leafValues></_>
        <_>
          <internalNodes>
            0 -1 111 1919108818 373637335 -1073528557 -282164606
            1113194624 -668335947 -928349954 -118035577</internalNodes>
          <leafValues>
            -4.3320313096046448e-01 4.3795618414878845e-01</leafValues></_>
        <_>
          <internalNodes>
            0 -1 24 -715766693 -648849398 1363986525 1373399232
            -1337757506 1805209864 815853501 1381884317</internalNodes>
          <leafValues>
            -6.3660532236099243e-01 3.1057760119438171e-01</leafValues></_></weakClassifiers></_>
    <!-- stage 17 -->
    <_>
      <maxWeakCount>13</maxWeakCount>
      <stageThreshold>-1.7960535287857056e+00</stageThreshold>
      <weakClassifiers>
        <_>
          <internalNodes>
            0 -1 104 -1241539841 2063335423 -33685510 -135037185
            1040054271 -705538 -134414337 -1158090085</internalNodes>
          <leafValues>
            -4.4186046719551086e-01 5.8959197998046875e-01</leafValues></_>
        <_>
          <internalNodes>
            0 -1 63 -1408389888 -251363199 -805249828 1879252993
            -125771535 -2113880056 79735215 -1226670040</internalNodes>
          <leafValues>
            -5.8946883678436279e-01 4.0192848443984985e-01</leafValues></_>
        <_>
          <internalNodes>
            0 -1 77 -741419693 1380045332 186399 1225806987 -921396837
            805597712 1093322189 1392958927</internalNodes>
          <leafValues>
            -6.9421750307083130e-01 3.8352376222610474e-01</leafValues></_>
        <_>
          <internalNodes>
            0 -1 66 -183509498 -914341632 -1811856380 -641679312
            2099790643 -66928639 2023698528 -572398966</internalNodes>
          <leafValues>
            -5.9349715709686279e-01 3.3334267139434814e-01</leafValues></_>
        <_>
          <internalNodes>
            0 -1 2 -961372768 -1556685263 -1363957796 -407392332
            -542068846 -830890411 2144054066 -1573597</internalNodes>
          <leafValues>
            -3.6751726269721985e-01 5.2397143840789795e-01</leafValues></_>
        <_>
          <internalNodes>
            0 -1 32 -1878984876 1996654657 -805257006 2031620120
            -1182756419 -2105507776 17402107 340236537</internalNodes>
          <leafValues>
            -5.9899234771728516e-01 3.1876331567764282e-01</leafValues></_>
        <_>
          <internalNodes>
            0 -1 43 -1845473014 738205749 268453906 -423624470 144345106
            -1300163967 -1968657526 -29613163</internalNodes>
          <leafValues>
            -5.5188900232315063e-01 3.3237197995185852e-01</leafValues></_>
        <_>
          <internalNodes>
            0 -1 99 928987112 1962897407 1073676287 -131330 -704643201
            1039663103 -1330259969 -1849697289</internalNodes>
          <leafValues>
            -4.0209096670150757e-01 4.7070911526679993e-01</leafValues></_>
        <_>
          <internalNodes>
            0 -1 89 -1165305040 72441288 -712933038 -469760925
            -827931997 -1195505599 -2138544250 -464083192</internalNodes>
          <leafValues>
            -4.3609139323234558e-01 4.3991136550903320e-01</leafValues></_>
        <_>
          <internalNodes>
            0 -1 114 -347364109 -787804088 -2146401983 285675611
            1241686986 1644276506 805505161 760207275</internalNodes>
          <leafValues>
            -6.8580549955368042e-01 3.0217730998992920e-01</leafValues></_>
        <_>
          <internalNodes>
            0 -1 30 -213694979 1342181411 1073758495 -1056894080
            -1879009216 -1006582784 -1710878384 -180094187</internalNodes>
          <leafValues>
            -4.8050141334533691e-01 4.3421939015388489e-01</leafValues></_>
        <_>
          <internalNodes>
            0 -1 143 -58550520 1427937920 286347316 -1861562213
            -2008519587 -1463217856 -801042042 -1881025600</internalNodes>
          <leafValues>
            -4.5486131310462952e-01 4.1686925292015076e-01</leafValues></_>
        <_>
          <internalNodes>
            0 -1 69 -519798751 -956284922 1342276840 983302177
            -1675902675 1345863849 -877411419 -1154356986</internalNodes>
          <leafValues>
            -4.5956477522850037e-01 4.2575022578239441e-01</leafValues></_></weakClassifiers></_>
    <!-- stage 18 -->
    <_>
      <maxWeakCount>11</maxWeakCount>
      <stageThreshold>-1.4219030141830444e+00</stageThreshold>
      <weakClassifiers>
        <_>
          <internalNodes>
            0 -1 39 -805306882 -1077936132 -65541 -67375112 -196610
            2143289341 1069481978 -270376</internalNodes>
          <leafValues>
            -4.6950092911720276e-01 5.8747804164886475e-01</leafValues></_>
        <_>
          <internalNodes>
            0 -1 108 -672410673 -794291999 1359249482 1225786393
            -2137816389 -1584790526 -804618034 1594867931</internalNodes>
          <leafValues>
            -6.3508886098861694e-01 3.6610600352287292e-01</leafValues></_>
        <_>
          <internalNodes>
            0 -1 133 -1877753856 -805224447 1342177280 -1878736832
            -2147467200 1073745920 285229056 -1731200941</internalNodes>
          <leafValues>
            -5.7995283603668213e-01 4.7188082337379456e-01</leafValues></_>
        <_>
          <internalNodes>
            0 -1 91 -178523364 12583961 1860133504 475054152 694600371
            -789274857 1470054674 -121597670</internalNodes>
          <leafValues>
            -4.3656060099601746e-01 5.5877625942230225e-01</leafValues></_>
        <_>
          <internalNodes>
            0 -1 4 117936 8421381 425988 1887600769 -2147218705
            -1608482680 13263309 1528263383</internalNodes>
          <leafValues>
            -5.5178272724151611e-01 3.8979196548461914e-01</leafValues></_>
        <_>
          <internalNodes>
            0 -1 25 -1281163555 -1128302594 2147483447 -1342210049
            -1140856935 -1728174161 2147483517 -187237377</internalNodes>
          <leafValues>
            -4.0415388345718384e-01 6.4466828107833862e-01</leafValues></_>
        <_>
          <internalNodes>
            0 -1 144 -366623860 -2131730910 -424391065 -1860061855
            -1856082048 6061992 -430488382 -1424247216</internalNodes>
          <leafValues>
            -3.7095966935157776e-01 6.1508476734161377e-01</leafValues></_>
        <_>
          <internalNodes>
            0 -1 16 -1499265151 -2072596651 2146364707 -1480003661
            -134322460 -1556856964 -424380944 -1076137997</internalNodes>
          <leafValues>
            -3.2591772079467773e-01 6.2591242790222168e-01</leafValues></_>
        <_>
          <internalNodes>
            0 -1 55 -1022979959 16842762 65538 -2097151999 1074266123
            134905865 143132832 -559609685</internalNodes>
          <leafValues>
            -4.8789322376251221e-01 4.5328223705291748e-01</leafValues></_>
        <_>
          <internalNodes>
            0 -1 130 -619453510 227164297 1476432016 1476395280
            -1040131519 -1937747968 67145856 285394483</internalNodes>
          <leafValues>
            -6.5883547067642212e-01 3.1287607550621033e-01</leafValues></_>
        <_>
          <internalNodes>
            0 -1 71 -872005620 -532623274 -1874788335 -401520614 65729
            537002119 402762805 -602448873</internalNodes>
          <leafValues>
            -4.5202225446701050e-01 5.1290994882583618e-01</leafValues></_></weakClassifiers></_>
    <!-- stage 19 -->
    <_>
      <maxWeakCount>10</maxWeakCount>
      <stageThreshold>-7.9312628507614136e-01</stageThreshold>
      <weakClassifiers>
        <_>
          <internalNodes>
            0 -1 44 1315537511 -1750116312 -12867525 2064356144
            1764714395 17839082 52856053 376258649</internalNodes>
          <leafValues>
            -5.2195119857788086e-01 5.8561152219772339e-01</leafValues></_>
        <_>
          <internalNodes>
            0 -1 100 -1056571323 -1719140352 16810112 1090650371
            554271105 -2004287342 151683466 -694023549</internalNodes>
          <leafValues>
            -5.1140558719635010e-01 5.6690943241119385e-01</leafValues></_>
        <_>
          <internalNodes>
            0 -1 82 -249433706 175155068 1197612100 74730848 645244289
            -2063630489 802296322 -376306685</internalNodes>
          <leafValues>
            -4.6863108873367310e-01 5.7961785793304443e-01</leafValues></_>
        <_>
          <internalNodes>
            0 -1 138 -1994877424 -1324597112 1073745920 -1946087292 137
            -939491328 67108864 -1006632960</internalNodes>
          <leafValues>
            -5.4815775156021118e-01 4.7967958450317383e-01</leafValues></_>
        <_>
          <internalNodes>
            0 -1 140 344481840 -252173840 248257869 488705573 75891721
            -1002156696 -832829376 -2013445727</internalNodes>
          <leafValues>
            -4.2551457881927490e-01 6.4102923870086670e-01</leafValues></_>
        <_>
          <internalNodes>
            0 -1 6 -901983206 -1364330948 -250255 -98275832 1744691148
            1844936599 887361114 -1348749791</internalNodes>
          <leafValues>
            -3.9957687258720398e-01 7.1772497892379761e-01</leafValues></_>
        <_>
          <internalNodes>
            0 -1 67 1382255555 2036428785 619336232 -31653902 679283794
            -151679691 743716330 -315328548</internalNodes>
          <leafValues>
            -4.1954606771469116e-01 6.3709610700607300e-01</leafValues></_>
        <_>
          <internalNodes>
            0 -1 11 -310147282 -1830740468 -320590304 1386462628
            -1519976319 1085620085 -267346816 -2116886015</internalNodes>
          <leafValues>
            -3.5289052128791809e-01 7.3080760240554810e-01</leafValues></_>
        <_>
          <internalNodes>
            0 -1 46 -1031188347 -1073741808 -1073676279 2013974529
            1074323464 -536805368 1342554242 1193696961</internalNodes>
          <leafValues>
            -7.3351681232452393e-01 3.9015954732894897e-01</leafValues></_>
        <_>
          <internalNodes>
            0 -1 21 -1321139840 1342206016 -1879029760 1073758336
            -2147479288 -2147483312 67109001 -1342017391</internalNodes>
          <leafValues>
            -6.7389982938766479e-01 4.3811470270156860e-01</leafValues></_></weakClassifiers></_>
    <!-- stage 20 -->
    <_>
      <maxWeakCount>7</maxWeakCount>
      <stageThreshold>-9.5903629064559937e-01</stageThreshold>
      <weakClassifiers>
        <_>
          <internalNodes>
            0 -1 94 3 67174400 285409280 655617 524352 -2013265916
            134348809 -1609953269</internalNodes>
          <leafValues>
            -5.8028614521026611e-01 6.8784701824188232e-01</leafValues></_>
        <_>
          <internalNodes>
            0 -1 141 8388608 -1879048192 -2147483375 1104167168 25691296
            1073889280 3 -497401725</internalNodes>
          <leafValues>
            -4.9029451608657837e-01 8.2464641332626343e-01</leafValues></_>
        <_>
          <internalNodes>
            0 -1 14 137889089 69540897 1256991744 -935249784 563413504
            105938486 336921611 -876526434</internalNodes>
          <leafValues>
            -4.1008281707763672e-01 8.9466363191604614e-01</leafValues></_>
        <_>
          <internalNodes>
            0 -1 54 1680052368 541067808 -1331025920 -1048043263
            336628096 306464592 68457664 605074689</internalNodes>
          <leafValues>
            -5.3206384181976318e-01 7.3162043094635010e-01</leafValues></_>
        <_>
          <internalNodes>
            0 -1 12 1149337615 20450417 -1367726416 -1063178656 72624072
            -2077132860 875857557 -2147394304</internalNodes>
          <leafValues>
            -4.5615917444229126e-01 8.8159984350204468e-01</leafValues></_>
        <_>
          <internalNodes>
            0 -1 72 472548886 610303749 1862186501 167817097 80838410
            -1637646516 1575312648 -67002597</internalNodes>
          <leafValues>
            -4.9819543957710266e-01 7.9524058103561401e-01</leafValues></_>
        <_>
          <internalNodes>
            0 -1 145 -1876735616 1073819206 922232352 270540800
            -1286302127 90584956 -1907086023 -1068990042</internalNodes>
          <leafValues>
            -5.2377182245254517e-01 7.6931250095367432e-01</leafValues></_></weakClassifiers></_></stages>
  <features>
    <_>
      <rect>
        0 0 6 6</rect></_>
    <_>
      <rect>
        0 3 2 3</rect></_>
    <_>
      <rect>
        0 4 1 2</rect></_>
    <_>
      <rect>
        0 5 2 1</rect></_>
    <_>
      <rect>
        0 5 2 2</rect></_>
    <_>
      <rect>
        0 5 8 3</rect></_>
    <_>
      <rect>
        0 6 1 2</rect></_>
    <_>
      <rect>
        0 6 2 3</rect></_>
    <_>
      <rect>
        0 6 3 2</rect></_>
    <_>
      <rect>
        0 6 4 2</rect></_>
    <_>
      <rect>
        1 6 7 2</rect></_>
    <_>
      <rect>
        1 12 1 1</rect></_>
    <_>
      <rect>
        1 13 3 1</rect></_>
    <_>
      <rect>
        2 1 5 4</rect></_>
    <_>
      <rect>
        2 3 2 1</rect></_>
    <_>
      <rect>
        2 3 6 3</rect></_>
    <_>
      <rect>
        2 4 1 1</rect></_>
    <_>
      <rect>
        2 6 6 3</rect></_>
    <_>
      <rect>
        3 3 5 3</rect></_>
    <_>
      <rect>
        3 3 6 3</rect></_>
    <_>
      <rect>
        3 3 7 4</rect></_>
    <_>
      <rect>
        3 5 6 4</rect></_>
    <_>
      <rect>
        3 6 5 3</rect></_>
    <_>
      <rect>
        3 6 6 3</rect></_>
    <_>
      <rect>
        3 8 2 1</rect></_>
    <_>
      <rect>
        3 8 6 2</rect></_>
    <_>
      <rect>
        3 11 4 1</rect></_>
    <_>
      <rect>
        4 3 5 3</rect></_>
    <_>
      <rect>
        4 3 6 3</rect></_>
    <_>
      <rect>
        4 5 4 2</rect></_>
    <_>
      <rect>
        4 5 4 4</rect></_>
    <_>
      <rect>
        4 6 5 3</rect></_>
    <_>
      <rect>
        4 7 4 2</rect></_>
    <_>
      <rect>
        4 7 5 3</rect></_>
    <_>
      <rect>
        5 3 5 3</rect></_>
    <_>
      <rect>
        5 4 3 1</rect></_>
    <_>
      <rect>
        5 4 4 2</rect></_>
    <_>
      <rect>
        5 6 4 2</rect></_>
    <_>
      <rect>
        6 0 4 6</rect></_>
    <_>
      <rect>
        6 2 4 3</rect></_>
    <_>
      <rect>
        6 3 4 1</rect></_>
    <_>
      <rect>
        6 3 4 5</rect></_>
    <_>
      <rect>
        6 5 4 1</rect></_>
    <_>
      <rect>
        6 5 5 1</rect></_>
    <_>
      <rect>
        6 7 2 1</rect></_>
    <_>
      <rect>
        6 7 4 3</rect></_>
    <_>
      <rect>
        6 8 1 1</rect></_>
    <_>
      <rect>
        6 8 2 1</rect></_>
    <_>
      <rect>
        6 10 4 1</rect></_>
    <_>
      <rect>
        6 11 2 1</rect></_>
    <_>
      <rect>
        7 4 3 1</rect></_>
    <_>
      <rect>
        7 4 3 2</rect></_>
    <_>
      <rect>
        7 8 4 2</rect></_>
    <_>
      <rect>
        7 11 3 1</rect></_>
    <_>
      <rect>
        7 15 4 1</rect></_>
    <_>
      <rect>
        8 2 4 2</rect></_>
    <_>
      <rect>
        8 3 3 1</rect></_>
    <_>
      <rect>
        8 3 5 4</rect></_>
    <_>
      <rect>
        8 4 1 1</rect></_>
    <_>
      <rect>
        8 5 2 4</rect></_>
    <_>
      <rect>
        8 5 3 1</rect></_>
    <_>
      <rect>
        8 7 1 1</rect></_>
    <_>
      <rect>
        8 8 1 1</rect></_>
    <_>
      <rect>
        8 10 3 1</rect></_>
    <_>
      <rect>
        8 10 4 2</rect></_>
    <_>
      <rect>
        8 11 3 1</rect></_>
    <_>
      <rect>
        8 12 3 1</rect></_>
    <_>
      <rect>
        8 13 3 1</rect></_>
    <_>
      <rect>
        9 0 3 6</rect></_>
    <_>
      <rect>
        9 2 2 1</rect></_>
    <_>
      <rect>
        9 2 5 3</rect></_>
    <_>
      <rect>
        9 3 1 1</rect></_>
    <_>
      <rect>
        9 3 2 1</rect></_>
    <_>
      <rect>
        9 4 5 2</rect></_>
    <_>
      <rect>
        9 5 2 1</rect></_>
    <_>
      <rect>
        9 7 1 1</rect></_>
    <_>
      <rect>
        9 7 5 3</rect></_>
    <_>
      <rect>
        9 8 1 1</rect></_>
    <_>
      <rect>
        9 8 2 1</rect></_>
    <_>
      <rect>
        9 9 5 2</rect></_>
    <_>
      <rect>
        9 10 2 1</rect></_>
    <_>
      <rect>
        9 11 5 1</rect></_>
    <_>
      <rect>
        9 12 2 1</rect></_>
    <_>
      <rect>
        10 4 4 1</rect></_>
    <_>
      <rect>
        10 5 1 1</rect></_>
    <_>
      <rect>
        10 7 1 1</rect></_>
    <_>
      <rect>
        10 7 2 1</rect></_>
    <_>
      <rect>
        10 8 1 1</rect></_>
    <_>
      <rect>
        10 9 4 2</rect></_>
    <_>
      <rect>
        10 11 1 1</rect></_>
    <_>
      <rect>
        10 11 4 1</rect></_>
    <_>
      <rect>
        10 12 1 1</rect></_>
    <_>
      <rect>
        11 1 3 3</rect></_>
    <_>
      <rect>
        11 3 2 1</rect></_>
    <_>
      <rect>
        11 4 4 1</rect></_>
    <_>
      <rect>
        11 7 1 1</rect></_>
    <_>
      <rect>
        11 8 1 1</rect></_>
    <_>
      <rect>
        11 8 3 3</rect></_>
    <_>
      <rect>
        11 12 3 1</rect></_>
    <_>
      <rect>
        12 1 3 4</rect></_>
    <_>
      <rect>
        12 3 2 1</rect></_>
    <_>
      <rect>
        12 7 1 1</rect></_>
    <_>
      <rect>
        12 7 4 3</rect></_>
    <_>
      <rect>
        12 8 1 1</rect></_>
    <_>
      <rect>
        13 0 2 4</rect></_>
    <_>
      <rect>
        13 5 1 1</rect></_>
    <_>
      <rect>
        13 6 2 4</rect></_>
    <_>
      <rect>
        13 7 1 1</rect></_>
    <_>
      <rect>
        13 8 1 1</rect></_>
    <_>
      <rect>
        13 12 2 1</rect></_>
    <_>
      <rect>
        14 0 3 6</rect></_>
    <_>
      <rect>
        14 3 1 1</rect></_>
    <_>
      <rect>
        14 4 2 1</rect></_>
    <_>
      <rect>
        14 5 1 1</rect></_>
    <_>
      <rect>
        14 6 1 1</rect></_>
    <_>
      <rect>
        14 7 1 1</rect></_>
    <_>
      <rect>
        14 8 1 1</rect></_>
    <_>
      <rect>
        14 9 1 1</rect></_>
    <_>
      <rect>
        14 10 1 1</rect></_>
    <_>
      <rect>
        14 11 3 1</rect></_>
    <_>
      <rect>
        15 1 1 3</rect></_>
    <_>
      <rect>
        15 2 2 3</rect></_>
    <_>
      <rect>
        15 3 1 1</rect></_>
    <_>
      <rect>
        15 3 3 3</rect></_>
    <_>
      <rect>
        15 6 1 1</rect></_>
    <_>
      <rect>
        15 6 3 3</rect></_>
    <_>
      <rect>
        15 7 1 1</rect></_>
    <_>
      <rect>
        15 8 1 1</rect></_>
    <_>
      <rect>
        15 9 1 1</rect></_>
    <_>
      <rect>
        15 9 2 2</rect></_>
    <_>
      <rect>
        15 10 1 1</rect></_>
    <_>
      <rect>
        15 10 1 2</rect></_>
    <_>
      <rect>
        15 12 1 1</rect></_>
    <_>
      <rect>
        16 3 1 5</rect></_>
    <_>
      <rect>
        16 4 1 1</rect></_>
    <_>
      <rect>
        16 6 1 4</rect></_>
    <_>
      <rect>
        17 4 2 2</rect></_>
    <_>
      <rect>
        17 11 1 1</rect></_>
    <_>
      <rect>
        18 11 1 1</rect></_>
    <_>
      <rect>
        19 8 1 2</rect></_>
    <_>
      <rect>
        20 4 1 1</rect></_>
    <_>
      <rect>
        20 5 1 1</rect></_>
    <_>
      <rect>
        20 9 1 1</rect></_>
    <_>
      <rect>
        21 6 1 2</rect></_>
    <_>
      <rect>
        21 7 1 2</rect></_>
    <_>
      <rect>
        21 11 1 1</rect></_></features></cascade>
</opencv_storage>
