<?xml version="1.0"?>
<opencv_storage>
<stage11>
  <maxWeakCount>8</maxWeakCount>
  <stageThreshold>-1.6197857856750488e+00</stageThreshold>
  <weakClassifiers>
    <_>
      <internalNodes>
        0 -1 2924 -184549425 -20743 -65553 -336126218 -169 -86017 -17033
        -50433</internalNodes>
      <leafValues>
        -4.5583596825599670e-01 6.4294552803039551e-01</leafValues></_>
    <_>
      <internalNodes>
        0 -1 3873 -538969349 -746064978 410077175 1399530261 -612639493
        -804692547 -4079621 2147216383</internalNodes>
      <leafValues>
        -6.1470967531204224e-01 5.2690201997756958e-01</leafValues></_>
    <_>
      <internalNodes>
        0 -1 2984 -796671863 -206929151 -2097020733 2113995522 956539266
        -1190624766 151628427 -591425621</internalNodes>
      <leafValues>
        -5.9710603952407837e-01 4.6121454238891602e-01</leafValues></_>
    <_>
      <internalNodes>
        0 -1 1436 -1517224192 151258644 -1008362700 -218000507
        -259458160 -1094156152 -201136128 -409221479</internalNodes>
      <leafValues>
        -6.5464991331100464e-01 4.2046073079109192e-01</leafValues></_>
    <_>
      <internalNodes>
        0 -1 3072 -1621108293 2105136123 324026879 2002471807 -401767751
        9634643 42158575 1594872763</internalNodes>
      <leafValues>
        -6.4719891548156738e-01 3.5021764039993286e-01</leafValues></_>
    <_>
      <internalNodes>
        0 -1 1347 -4260159 -33603460 -1 1937723124 -1548042305
        -1140916289 -1158217793 -1151338501</internalNodes>
      <leafValues>
        -4.4338446855545044e-01 6.0083687305450439e-01</leafValues></_>
    <_>
      <internalNodes>
        0 -1 4218 537043588 941106948 -1053642735 -23832553 1758318117
        -607501687 -1433746294 -235143536</internalNodes>
      <leafValues>
        -7.0298331975936890e-01 3.6676067113876343e-01</leafValues></_>
    <_>
      <internalNodes>
        0 -1 2310 2001229471 2034277280 -749416073 1569505683 -800855351
        983615650 -517762615 1393062751</internalNodes>
      <leafValues>
        -7.0709264278411865e-01 3.1361147761344910e-01</leafValues></_></weakClassifiers></stage11>
</opencv_storage>
