<?xml version="1.0"?>
<opencv_storage>
<stage16>
  <maxWeakCount>10</maxWeakCount>
  <stageThreshold>-8.9710545539855957e-01</stageThreshold>
  <weakClassifiers>
    <_>
      <internalNodes>
        0 -1 2206 -268435586 -184688644 -20721 2147396287 -1075859546
        -1207982085 -58505 -42518406</internalNodes>
      <leafValues>
        -3.9949110150337219e-01 5.9349590539932251e-01</leafValues></_>
    <_>
      <internalNodes>
        0 -1 3702 -708191621 -546616497 1344509311 1544143221
        -2057509137 1917316435 -552861697 1610612735</internalNodes>
      <leafValues>
        -5.8683687448501587e-01 4.0984097123146057e-01</leafValues></_>
    <_>
      <internalNodes>
        0 -1 990 -1324281820 -762748821 -1073581587 1516322889
        -1610506853 -796827648 423738056 -1077184121</internalNodes>
      <leafValues>
        -6.4281904697418213e-01 3.3557879924774170e-01</leafValues></_>
    <_>
      <internalNodes>
        0 -1 4140 -900624240 1360072707 -1862201343 -805220079
        -804159193 -1869545200 1614893058 -296225345</internalNodes>
      <leafValues>
        -5.5317372083663940e-01 3.7359225749969482e-01</leafValues></_>
    <_>
      <internalNodes>
        0 -1 4188 -237512449 -176740678 117557917 1459708243 -1419134550
        -879517565 302379195 1602204651</internalNodes>
      <leafValues>
        -6.4845591783523560e-01 2.8761619329452515e-01</leafValues></_>
    <_>
      <internalNodes>
        0 -1 1919 1892368896 513487207 -938294342 1985642891 360849920
        1820524623 -367019152 -1229005953</internalNodes>
      <leafValues>
        -6.0872852802276611e-01 3.2692322134971619e-01</leafValues></_>
    <_>
      <internalNodes>
        0 -1 3554 -1499740254 -1432745786 -1071054789 -679394047
        -1735607892 1042362886 -1601683790 -4460498</internalNodes>
      <leafValues>
        -5.6449252367019653e-01 3.7658926844596863e-01</leafValues></_>
    <_>
      <internalNodes>
        0 -1 238 -509226538 -1036808125 -1072119589 -801652205
        1811941377 1611694218 -542459889 -72716529</internalNodes>
      <leafValues>
        -4.5542982220649719e-01 4.9594074487686157e-01</leafValues></_>
    <_>
      <internalNodes>
        0 -1 3975 1919108818 373637335 -1073528557 -282164606 1113194624
        -668335947 -928349954 -118035577</internalNodes>
      <leafValues>
        -4.3320313096046448e-01 4.3795618414878845e-01</leafValues></_>
    <_>
      <internalNodes>
        0 -1 1377 -715766693 -648849398 1363986525 1373399232
        -1337757506 1805209864 815853501 1381884317</internalNodes>
      <leafValues>
        -6.3660532236099243e-01 3.1057760119438171e-01</leafValues></_></weakClassifiers></stage16>
</opencv_storage>
