<?xml version="1.0"?>
<opencv_storage>
<stage18>
  <maxWeakCount>11</maxWeakCount>
  <stageThreshold>-1.4219030141830444e+00</stageThreshold>
  <weakClassifiers>
    <_>
      <internalNodes>
        0 -1 2174 -805306882 -1077936132 -65541 -67375112 -196610
        2143289341 1069481978 -270376</internalNodes>
      <leafValues>
        -4.6950092911720276e-01 5.8747804164886475e-01</leafValues></_>
    <_>
      <internalNodes>
        0 -1 3882 -672410673 -794291999 1359249482 1225786393
        -2137816389 -1584790526 -804618034 1594867931</internalNodes>
      <leafValues>
        -6.3508886098861694e-01 3.6610600352287292e-01</leafValues></_>
    <_>
      <internalNodes>
        0 -1 4269 -1877753856 -805224447 1342177280 -1878736832
        -2147467200 1073745920 285229056 -1731200941</internalNodes>
      <leafValues>
        -5.7995283603668213e-01 4.7188082337379456e-01</leafValues></_>
    <_>
      <internalNodes>
        0 -1 3346 -178523364 12583961 1860133504 475054152 694600371
        -789274857 1470054674 -121597670</internalNodes>
      <leafValues>
        -4.3656060099601746e-01 5.5877625942230225e-01</leafValues></_>
    <_>
      <internalNodes>
        0 -1 205 117936 8421381 425988 1887600769 -2147218705
        -1608482680 13263309 1528263383</internalNodes>
      <leafValues>
        -5.5178272724151611e-01 3.8979196548461914e-01</leafValues></_>
    <_>
      <internalNodes>
        0 -1 1390 -1281163555 -1128302594 2147483447 -1342210049
        -1140856935 -1728174161 2147483517 -187237377</internalNodes>
      <leafValues>
        -4.0415388345718384e-01 6.4466828107833862e-01</leafValues></_>
    <_>
      <internalNodes>
        0 -1 4675 -366623860 -2131730910 -424391065 -1860061855
        -1856082048 6061992 -430488382 -1424247216</internalNodes>
      <leafValues>
        -3.7095966935157776e-01 6.1508476734161377e-01</leafValues></_>
    <_>
      <internalNodes>
        0 -1 912 -1499265151 -2072596651 2146364707 -1480003661
        -134322460 -1556856964 -424380944 -1076137997</internalNodes>
      <leafValues>
        -3.2591772079467773e-01 6.2591242790222168e-01</leafValues></_>
    <_>
      <internalNodes>
        0 -1 2723 -1022979959 16842762 65538 -2097151999 1074266123
        134905865 143132832 -559609685</internalNodes>
      <leafValues>
        -4.8789322376251221e-01 4.5328223705291748e-01</leafValues></_>
    <_>
      <internalNodes>
        0 -1 4206 -619453510 227164297 1476432016 1476395280 -1040131519
        -1937747968 67145856 285394483</internalNodes>
      <leafValues>
        -6.5883547067642212e-01 3.1287607550621033e-01</leafValues></_>
    <_>
      <internalNodes>
        0 -1 2987 -872005620 -532623274 -1874788335 -401520614 65729
        537002119 402762805 -602448873</internalNodes>
      <leafValues>
        -4.5202225446701050e-01 5.1290994882583618e-01</leafValues></_></weakClassifiers></stage18>
</opencv_storage>
