<?xml version="1.0"?>
<opencv_storage>
<stage13>
  <maxWeakCount>10</maxWeakCount>
  <stageThreshold>-1.1862410306930542e+00</stageThreshold>
  <weakClassifiers>
    <_>
      <internalNodes>
        0 -1 2587 -1075177539 -33597441 -8388609 -16385 -1074872325
        -32833 -33 -33</internalNodes>
      <leafValues>
        -2.9253366589546204e-01 6.9016051292419434e-01</leafValues></_>
    <_>
      <internalNodes>
        0 -1 3306 -39845889 -136486421 1426127327 1113965131 -991953925
        -775689676 1585839007 1533007295</internalNodes>
      <leafValues>
        -6.0771876573562622e-01 4.8358711600303650e-01</leafValues></_>
    <_>
      <internalNodes>
        0 -1 3258 -134217745 -67241985 -1375736065 -134217737 -50331729
        -1073742337 -295185 -235143681</internalNodes>
      <leafValues>
        -4.8857605457305908e-01 5.3351658582687378e-01</leafValues></_>
    <_>
      <internalNodes>
        0 -1 3262 1006600175 1071415295 -1147142145 -65537 -37871759
        -147 -16810568 -67841</internalNodes>
      <leafValues>
        -3.7357649207115173e-01 5.8274859189987183e-01</leafValues></_>
    <_>
      <internalNodes>
        0 -1 4179 -543821313 -2887209 51546395 1560671059 -81679994
        523390987 1135028651 2012213663</internalNodes>
      <leafValues>
        -6.2585914134979248e-01 3.5483992099761963e-01</leafValues></_>
    <_>
      <internalNodes>
        0 -1 3344 -136323073 1599406039 -4097 -35 -1098911793 747437936
        -1082136584 -274760100</internalNodes>
      <leafValues>
        -4.6687462925910950e-01 5.2862066030502319e-01</leafValues></_>
    <_>
      <internalNodes>
        0 -1 135 -13447213 -1087176713 -1350733829 -524303 -698377
        -458758 2144564475 -305168905</internalNodes>
      <leafValues>
        -3.7098684906959534e-01 5.8926850557327271e-01</leafValues></_>
    <_>
      <internalNodes>
        0 -1 4423 -1431651454 -18154638 -1082959050 -709095587 -33595917
        -134250497 -50333707 -34759344</internalNodes>
      <leafValues>
        -4.6437522768974304e-01 4.9033531546592712e-01</leafValues></_>
    <_>
      <internalNodes>
        0 -1 4014 -808992729 -1157143083 69808524 1574121763 -1583880485
        323031691 889301752 301927419</internalNodes>
      <leafValues>
        -7.3699820041656494e-01 3.2927289605140686e-01</leafValues></_>
    <_>
      <internalNodes>
        0 -1 2757 540938312 -221724640 -749321728 -198902767 1938300944
        1886391075 -1022746588 -1295778</internalNodes>
      <leafValues>
        -6.5151679515838623e-01 3.2138079404830933e-01</leafValues></_></weakClassifiers></stage13>
</opencv_storage>
