<?xml version="1.0"?>
<opencv_storage>
<stage7>
  <maxWeakCount>7</maxWeakCount>
  <stageThreshold>-1.0404183864593506e+00</stageThreshold>
  <weakClassifiers>
    <_>
      <internalNodes>
        0 -1 2511 -1 -1076887553 -1727938561 -610926466 -2142863143
        -3495860 -1879310340 -327684</internalNodes>
      <leafValues>
        -6.4880460500717163e-01 6.9577121734619141e-01</leafValues></_>
    <_>
      <internalNodes>
        0 -1 3135 -257 1567675607 -9 -3 -1610637329 720240613 -526401
        -285474817</internalNodes>
      <leafValues>
        -4.9396166205406189e-01 6.9316565990447998e-01</leafValues></_>
    <_>
      <internalNodes>
        0 -1 4026 -39856129 -9190857 -1862123047 1057183079 -449450005
        -78132802 321638331 2072752047</internalNodes>
      <leafValues>
        -6.7640423774719238e-01 4.8982000350952148e-01</leafValues></_>
    <_>
      <internalNodes>
        0 -1 3994 -1103894017 -225345085 -788489645 1926366715 960547162
        -89456605 -117769478 -251737361</internalNodes>
      <leafValues>
        -5.9182459115982056e-01 5.5516183376312256e-01</leafValues></_>
    <_>
      <internalNodes>
        0 -1 1671 -1325063206 -212635451 287391359 1432044567
        -1207780712 -1140273470 948351411 -272667649</internalNodes>
      <leafValues>
        -6.7339849472045898e-01 4.7396576404571533e-01</leafValues></_>
    <_>
      <internalNodes>
        0 -1 2510 -229123116 -1754201855 -2145361494 -1279842161
        -2117091216 1241284608 146511864 -75501449</internalNodes>
      <leafValues>
        -5.9993588924407959e-01 4.8153898119926453e-01</leafValues></_>
    <_>
      <internalNodes>
        0 -1 4053 -2622353 -581743407 1359073547 1465537670 -1400219442
        -1322543541 11079807 1342645963</internalNodes>
      <leafValues>
        -7.3135375976562500e-01 4.1507202386856079e-01</leafValues></_></weakClassifiers></stage7>
</opencv_storage>
