<?xml version="1.0"?>
<opencv_storage>
<stage10>
  <maxWeakCount>8</maxWeakCount>
  <stageThreshold>-1.3751862049102783e+00</stageThreshold>
  <weakClassifiers>
    <_>
      <internalNodes>
        0 -1 830 -134480387 -9461769 -8389003 -10756 1040186813
        -159392291 -8781912 -12858104</internalNodes>
      <leafValues>
        -5.4537743330001831e-01 6.4528757333755493e-01</leafValues></_>
    <_>
      <internalNodes>
        0 -1 3868 861731295 -1664422757 -1073709040 -251473917 4374658
        -1711243228 -1031550551 -1141119381</internalNodes>
      <leafValues>
        -6.3238459825515747e-01 4.8600849509239197e-01</leafValues></_>
    <_>
      <internalNodes>
        0 -1 3297 -779627809 -1861143527 277090783 1362580111 -878974753
        -1558521649 1216851455 1594874831</internalNodes>
      <leafValues>
        -6.3787239789962769e-01 4.5556339621543884e-01</leafValues></_>
    <_>
      <internalNodes>
        0 -1 1602 -37753447 -609222673 -1078001666 1593507839 -75498021
        -1744865283 -897843745 -1715798561</internalNodes>
      <leafValues>
        -4.6916106343269348e-01 5.4126816987991333e-01</leafValues></_>
    <_>
      <internalNodes>
        0 -1 3115 -5835788 354529653 -2147438584 -41836157 -2063482751
        2139324544 -2046820277 -1383462485</internalNodes>
      <leafValues>
        -6.0008418560028076e-01 4.1461497545242310e-01</leafValues></_>
    <_>
      <internalNodes>
        0 -1 2817 2076172287 -740959536 1228249239 295522773 -1529038881
        -1517613043 -1033213252 1608507097</internalNodes>
      <leafValues>
        -6.1900007724761963e-01 3.7920525670051575e-01</leafValues></_>
    <_>
      <internalNodes>
        0 -1 3639 455500555 1912843215 -1064898251 -619804977 -494368069
        -543112949 -963206993 -235744833</internalNodes>
      <leafValues>
        -5.0255393981933594e-01 5.0336980819702148e-01</leafValues></_>
    <_>
      <internalNodes>
        0 -1 204 129058475 -1412114147 285295296 -210144047 1368688821
        278440081 -357769931 -1208751499</internalNodes>
      <leafValues>
        -4.8821252584457397e-01 4.9815526604652405e-01</leafValues></_></weakClassifiers></stage10>
</opencv_storage>
