<?xml version="1.0"?>
<opencv_storage>
<stage9>
  <maxWeakCount>9</maxWeakCount>
  <stageThreshold>-1.3310818672180176e+00</stageThreshold>
  <weakClassifiers>
    <_>
      <internalNodes>
        0 -1 4120 -16842757 -9502722 -268501249 -69761 2130607356
        -196610 -16842754 -285278465</internalNodes>
      <leafValues>
        -5.2695089578628540e-01 6.6165184974670410e-01</leafValues></_>
    <_>
      <internalNodes>
        0 -1 245 -759106083 -139339197 -2130656257 -49024637 -2000667685
        -331199572 -385159521 1602975735</internalNodes>
      <leafValues>
        -5.8600270748138428e-01 5.4241895675659180e-01</leafValues></_>
    <_>
      <internalNodes>
        0 -1 3119 -1409630445 -1080231973 1430387199 1066914258
        -306781193 -1978040183 -359471886 -1127829607</internalNodes>
      <leafValues>
        -5.3381043672561646e-01 5.3896468877792358e-01</leafValues></_>
    <_>
      <internalNodes>
        0 -1 3714 -674763265 -648160696 -1421322562 1393804205
        -972893697 -1009808758 -784230913 1464330751</internalNodes>
      <leafValues>
        -7.2199863195419312e-01 4.4545540213584900e-01</leafValues></_>
    <_>
      <internalNodes>
        0 -1 2723 1100712166 -771357949 101259 -1087963005 -2002582994
        2039161090 -402323286 -1380858993</internalNodes>
      <leafValues>
        -5.3914290666580200e-01 5.2087682485580444e-01</leafValues></_>
    <_>
      <internalNodes>
        0 -1 4063 -502864981 -1964749686 -787263090 -1208122981
        -1879011909 -226484096 -1727954766 -141574014</internalNodes>
      <leafValues>
        -5.8801907300949097e-01 4.1534855961799622e-01</leafValues></_>
    <_>
      <internalNodes>
        0 -1 1597 297855362 285250046 -1073686193 -776122190 -528428919
        1342197897 -1323175942 -12854888</internalNodes>
      <leafValues>
        -7.1322071552276611e-01 3.0960676074028015e-01</leafValues></_>
    <_>
      <internalNodes>
        0 -1 3849 -788014166 319930376 -1862057967 164857819 -2138926659
        538937743 1636794484 1069541051</internalNodes>
      <leafValues>
        -6.7437440156936646e-01 3.8890898227691650e-01</leafValues></_>
    <_>
      <internalNodes>
        0 -1 2784 -1694035595 1073954824 545280900 -1073274606 598249889
        -1588395007 25297164 -21136441</internalNodes>
      <leafValues>
        -7.0601189136505127e-01 3.4116899967193604e-01</leafValues></_></weakClassifiers></stage9>
</opencv_storage>
