<?xml version="1.0"?>
<opencv_storage>
<stage15>
  <maxWeakCount>10</maxWeakCount>
  <stageThreshold>-8.3268082141876221e-01</stageThreshold>
  <weakClassifiers>
    <_>
      <internalNodes>
        0 -1 904 -54526789 -4202514 -4194305 -1126914 2139086843
        -5513747 -262145 -12855912</internalNodes>
      <leafValues>
        -3.3379405736923218e-01 6.4952504634857178e-01</leafValues></_>
    <_>
      <internalNodes>
        0 -1 4026 -639894577 -615291061 1426939995 -243384065 -203700226
        -373403737 61074399 2145361919</internalNodes>
      <leafValues>
        -6.1993145942687988e-01 4.0677762031555176e-01</leafValues></_>
    <_>
      <internalNodes>
        0 -1 4275 -219446713 -1875701757 -1592082429 -45055739
        -1037692914 -352088061 -1832218978 -25505889</internalNodes>
      <leafValues>
        -4.5855328440666199e-01 5.0001984834671021e-01</leafValues></_>
    <_>
      <internalNodes>
        0 -1 3086 -10753823 843301020 1207959569 2139672736 -2145353592
        -100548446 1208090627 1896857610</internalNodes>
      <leafValues>
        -6.7469048500061035e-01 3.2086247205734253e-01</leafValues></_>
    <_>
      <internalNodes>
        0 -1 1261 -1769684784 -1136377339 1073797120 -756819883
        1207994888 134614017 -1410806622 -1683337859</internalNodes>
      <leafValues>
        -5.1758831739425659e-01 3.6982825398445129e-01</leafValues></_>
    <_>
      <internalNodes>
        0 -1 4167 -753156881 2110718721 -1862056653 1447632607
        -668211974 13848760 1398508971 931096575</internalNodes>
      <leafValues>
        -7.0168530941009521e-01 3.2066097855567932e-01</leafValues></_>
    <_>
      <internalNodes>
        0 -1 2869 2127560664 -264092663 -889057121 -2063531904
        1107339435 -1165326199 -1476359793 -1969223256</internalNodes>
      <leafValues>
        -4.8359090089797974e-01 4.1219222545623779e-01</leafValues></_>
    <_>
      <internalNodes>
        0 -1 2742 -286265845 -218107987 2130181891 1965293511
        -1228472494 -187343035 -395313 -13123833</internalNodes>
      <leafValues>
        -3.9518362283706665e-01 4.9596041440963745e-01</leafValues></_>
    <_>
      <internalNodes>
        0 -1 2832 1912142943 -744798087 -1609513349 1501762049
        -742142725 1342194003 558492329 269216191</internalNodes>
      <leafValues>
        -6.6427624225616455e-01 2.7366083860397339e-01</leafValues></_>
    <_>
      <internalNodes>
        0 -1 4629 -1548206552 -1330048942 -666834598 -1436225536
        -796745718 1292207233 -500789120 -1535095676</internalNodes>
      <leafValues>
        -5.9962308406829834e-01 3.4680789709091187e-01</leafValues></_></weakClassifiers></stage15>
</opencv_storage>
