<?xml version="1.0"?>
<opencv_storage>
<cascade>
  <stageType>BOOST</stageType>
  <featureType>LBP</featureType>
  <height>18</height>
  <width>24</width>
  <stageParams>
    <boostType>GAB</boostType>
    <minHitRate>9.9900001287460327e-01</minHitRate>
    <maxFalseAlarm>5.0000000000000000e-01</maxFalseAlarm>
    <weightTrimRate>9.4999999999999996e-01</weightTrimRate>
    <maxDepth>1</maxDepth>
    <maxWeakCount>100</maxWeakCount></stageParams>
  <featureParams>
    <maxCatCount>256</maxCatCount>
    <featSize>1</featSize></featureParams>
  <stageNum>20</stageNum>
  <stages>
    <!-- stage 0 -->
    <_>
      <maxWeakCount>3</maxWeakCount>
      <stageThreshold>-8.8055223226547241e-01</stageThreshold>
      <weakClassifiers>
        <_>
          <internalNodes>
            0 -1 55 -1 -4223745 -5243905 -1617982322 -4194337 -29441
            -275779601 -1886417778</internalNodes>
          <leafValues>
            -8.5578233003616333e-01 9.1023099422454834e-01</leafValues></_>
        <_>
          <internalNodes>
            0 -1 57 -1069057 -56897 -1884319745 -56321 -1343246417
            -21505 2853567 -69269009</internalNodes>
          <leafValues>
            -7.4119585752487183e-01 8.9330756664276123e-01</leafValues></_>
        <_>
          <internalNodes>
            0 -1 20 -148898817 -81967521 956330367 1599689183 967551675
            -1416945349 537004991 526320575</internalNodes>
          <leafValues>
            -8.6343765258789062e-01 7.1642601490020752e-01</leafValues></_></weakClassifiers></_>
    <!-- stage 1 -->
    <_>
      <maxWeakCount>3</maxWeakCount>
      <stageThreshold>-9.4369649887084961e-01</stageThreshold>
      <weakClassifiers>
        <_>
          <internalNodes>
            0 -1 101 -142671905 -4802159 -745531425 2136660311 722663419
            -82180135 956480511 1597641727</internalNodes>
          <leafValues>
            -8.4884643554687500e-01 7.9155105352401733e-01</leafValues></_>
        <_>
          <internalNodes>
            0 -1 68 -4740101 -1611035753 -1584872233 -1656772377
            -512628481 -1463582071 -1970042161 -922777345</internalNodes>
          <leafValues>
            -7.7874690294265747e-01 7.2919678688049316e-01</leafValues></_>
        <_>
          <internalNodes>
            0 -1 16 -252649985 -774796841 -2140061617 -774775849
            -997990913 -543971189 -442455333 -235808585</internalNodes>
          <leafValues>
            -8.0502861738204956e-01 6.8389689922332764e-01</leafValues></_></weakClassifiers></_>
    <!-- stage 2 -->
    <_>
      <maxWeakCount>4</maxWeakCount>
      <stageThreshold>-1.5802278518676758e+00</stageThreshold>
      <weakClassifiers>
        <_>
          <internalNodes>
            0 -1 21 1599078399 1598747131 -746482209 1426587071
            218495999 1275775650 -73793605 1566538751</internalNodes>
          <leafValues>
            -7.8716492652893066e-01 7.5527685880661011e-01</leafValues></_>
        <_>
          <internalNodes>
            0 -1 55 -108003329 -572154849 823251421 -140694473
            -802501650 -96173569 -1156846613 -7371634</internalNodes>
          <leafValues>
            -7.2317826747894287e-01 7.2972267866134644e-01</leafValues></_>
        <_>
          <internalNodes>
            0 -1 96 -341573633 -2100777 1258637821 -539102305 193707999
            171693292 132269307 1474253275</internalNodes>
          <leafValues>
            -7.8848505020141602e-01 6.4425301551818848e-01</leafValues></_>
        <_>
          <internalNodes>
            0 -1 10 -1060383777 -765505255 1090619799 1364148823
            662890123 -232226686 302240447 1097822463</internalNodes>
          <leafValues>
            -8.2384133338928223e-01 5.7320886850357056e-01</leafValues></_></weakClassifiers></_>
    <!-- stage 3 -->
    <_>
      <maxWeakCount>5</maxWeakCount>
      <stageThreshold>-8.2062160968780518e-01</stageThreshold>
      <weakClassifiers>
        <_>
          <internalNodes>
            0 -1 39 -1 -2105857 -1357119489 522063359 -1048577 -4203009
            227209215 -1618310002</internalNodes>
          <leafValues>
            -6.9219332933425903e-01 7.7052295207977295e-01</leafValues></_>
        <_>
          <internalNodes>
            0 -1 31 -1 -134262793 -2051039233 1977554815 -1079001089
            -57345 352825343 -139000321</internalNodes>
          <leafValues>
            -6.7170673608779907e-01 7.2729307413101196e-01</leafValues></_>
        <_>
          <internalNodes>
            0 -1 85 -75039496 -548349980 -985116464 -1338112 -125521494
            -7626552 1095614858 -3181601</internalNodes>
          <leafValues>
            -7.1068418025970459e-01 6.4922773838043213e-01</leafValues></_>
        <_>
          <internalNodes>
            0 -1 111 -1690616005 -1089135589 -1781191169 -1082304515
            -1398034769 -1895005560 -544224001 -5</internalNodes>
          <leafValues>
            -6.4828425645828247e-01 6.1308753490447998e-01</leafValues></_>
        <_>
          <internalNodes>
            0 -1 78 -86057729 -227503142 -804597345 -201797352
            -658533377 -17055073 -1711822337 495918348</internalNodes>
          <leafValues>
            -7.6454728841781616e-01 5.4233497381210327e-01</leafValues></_></weakClassifiers></_>
    <!-- stage 4 -->
    <_>
      <maxWeakCount>7</maxWeakCount>
      <stageThreshold>-1.0685185194015503e+00</stageThreshold>
      <weakClassifiers>
        <_>
          <internalNodes>
            0 -1 16 551790575 -135005185 -521076737 -168690691 -786433
            -528385 -235798529 -235536385</internalNodes>
          <leafValues>
            -5.3566622734069824e-01 7.6177835464477539e-01</leafValues></_>
        <_>
          <internalNodes>
            0 -1 33 -142872368 -682363536 1930907761 -539930253
            1352352844 -109986798 67960856 -4231905</internalNodes>
          <leafValues>
            -7.0311015844345093e-01 5.9920763969421387e-01</leafValues></_>
        <_>
          <internalNodes>
            0 -1 90 -288939549 -17563663 -2133654689 -102771777
            -309730385 -36450231 143329995 2077215727</internalNodes>
          <leafValues>
            -7.1716117858886719e-01 5.4135078191757202e-01</leafValues></_>
        <_>
          <internalNodes>
            0 -1 43 83942807 -11201384 -1183778795 2073235967
            -1417546409 -1332095663 184597999 -1626361921</internalNodes>
          <leafValues>
            -6.9480186700820923e-01 5.5383765697479248e-01</leafValues></_>
        <_>
          <internalNodes>
            0 -1 64 -287379714 -555069228 -1691325955 -4806306 188813007
            -355794792 -1358206085 -336597009</internalNodes>
          <leafValues>
            -6.7748063802719116e-01 5.4964143037796021e-01</leafValues></_>
        <_>
          <internalNodes>
            0 -1 14 -67679211 -148909065 -1022257121 -1998870181
            -541261816 -108279381 1221292287 -319881473</internalNodes>
          <leafValues>
            -6.9248300790786743e-01 5.2660119533538818e-01</leafValues></_>
        <_>
          <internalNodes>
            0 -1 61 -942669901 453461451 1560508187 1594442687
            2140842699 286263559 1562063295 2132754961</internalNodes>
          <leafValues>
            -7.4098449945449829e-01 4.7458845376968384e-01</leafValues></_></weakClassifiers></_>
    <!-- stage 5 -->
    <_>
      <maxWeakCount>6</maxWeakCount>
      <stageThreshold>-1.5355843305587769e+00</stageThreshold>
      <weakClassifiers>
        <_>
          <internalNodes>
            0 -1 81 -184355877 -13217743 -786238497 1595047287
            -1373376261 -138308643 251849727 1462924799</internalNodes>
          <leafValues>
            -7.6869392395019531e-01 6.4941376447677612e-01</leafValues></_>
        <_>
          <internalNodes>
            0 -1 68 -2644045 -305059881 -2023501835 -35805451 -398350275
            -1609193309 -1063392683 -520115969</internalNodes>
          <leafValues>
            -7.2493517398834229e-01 5.3244197368621826e-01</leafValues></_>
        <_>
          <internalNodes>
            0 -1 4 -952980481 -605163521 572596991 -214713345 -279456289
            -32777 -193862149 -176949633</internalNodes>
          <leafValues>
            -5.6134074926376343e-01 6.8289756774902344e-01</leafValues></_>
        <_>
          <internalNodes>
            0 -1 108 -1346897931 775133317 -780098209 1744671005
            -1051418483 14648221 -2059697731 1440711005</internalNodes>
          <leafValues>
            -7.5925284624099731e-01 4.5770475268363953e-01</leafValues></_>
        <_>
          <internalNodes>
            0 -1 30 -578626050 2006337915 -1257185929 -552086307
            -920530047 -7172056 1225309887 -550795109</internalNodes>
          <leafValues>
            -6.4334964752197266e-01 5.3429871797561646e-01</leafValues></_>
        <_>
          <internalNodes>
            0 -1 25 -52492185 -31620969 -752641057 -259735535 1791955980
            -894713442 1545559199 -18914613</internalNodes>
          <leafValues>
            -6.7376804351806641e-01 4.8414450883865356e-01</leafValues></_></weakClassifiers></_>
    <!-- stage 6 -->
    <_>
      <maxWeakCount>6</maxWeakCount>
      <stageThreshold>-1.6569185256958008e+00</stageThreshold>
      <weakClassifiers>
        <_>
          <internalNodes>
            0 -1 18 -622854177 -82849825 -1072446605 1464293667
            -356105139 -1038462437 -770979565 1549224723</internalNodes>
          <leafValues>
            -7.0829361677169800e-01 6.4995652437210083e-01</leafValues></_>
        <_>
          <internalNodes>
            0 -1 105 -1416418373 -314961645 -1848341025 -8432275
            -2038068054 -1625782261 -1911979553 -1683235665</internalNodes>
          <leafValues>
            -6.5487635135650635e-01 5.6025260686874390e-01</leafValues></_>
        <_>
          <internalNodes>
            0 -1 40 -717229089 -27199838 -922676233 -134760971
            -872353270 -74796354 1526889243 256594769</internalNodes>
          <leafValues>
            -7.4100595712661743e-01 4.6300271153450012e-01</leafValues></_>
        <_>
          <internalNodes>
            0 -1 75 -1460933889 -352585013 -1364463633 983818495
            -408229393 -1364463873 -1347691265 -1364464385</internalNodes>
          <leafValues>
            -5.7885354757308960e-01 6.2844979763031006e-01</leafValues></_>
        <_>
          <internalNodes>
            0 -1 54 1979612991 -176196492 18887035 -236530570 -525852410
            -796781998 -377298049 -74792802</internalNodes>
          <leafValues>
            -7.5799459218978882e-01 4.4013106822967529e-01</leafValues></_>
        <_>
          <internalNodes>
            0 -1 86 -224136974 -77669968 1073860823 -137038988
            -1338510593 349686400 1892020479 1398798259</internalNodes>
          <leafValues>
            -7.8927361965179443e-01 3.8717254996299744e-01</leafValues></_></weakClassifiers></_>
    <!-- stage 7 -->
    <_>
      <maxWeakCount>7</maxWeakCount>
      <stageThreshold>-1.1511752605438232e+00</stageThreshold>
      <weakClassifiers>
        <_>
          <internalNodes>
            0 -1 36 662169424 -1086785552 -327687 -1769552 -8390747
            -4718604 -75 -4849744</internalNodes>
          <leafValues>
            -5.0711607933044434e-01 6.8783569335937500e-01</leafValues></_>
        <_>
          <internalNodes>
            0 -1 107 196053223 -679500901 152368407 -1684016325
            193366974 461505371 1597683711 1473922943</internalNodes>
          <leafValues>
            -6.7581564188003540e-01 5.0492668151855469e-01</leafValues></_>
        <_>
          <internalNodes>
            0 -1 5 -910771457 -541009697 402673855 -245292831 -913860097
            -275668521 -905854721 -143433433</internalNodes>
          <leafValues>
            -6.4450919628143311e-01 4.9956735968589783e-01</leafValues></_>
        <_>
          <internalNodes>
            0 -1 87 1877161215 -783232938 -616297219 -540982140
            -381554467 -125792256 1117978871 1506607758</internalNodes>
          <leafValues>
            -7.6435214281082153e-01 4.3315652012825012e-01</leafValues></_>
        <_>
          <internalNodes>
            0 -1 66 1945629467 -707577473 -1862053001 -33577537
            -1792855261 -2087572753 1637153571 -862985025</internalNodes>
          <leafValues>
            -5.8243268728256226e-01 5.2790683507919312e-01</leafValues></_>
        <_>
          <internalNodes>
            0 -1 57 1438880735 -250005225 1224998751 -34495521
            -601976889 -699360396 -1610422323 -68057635</internalNodes>
          <leafValues>
            -6.1674189567565918e-01 5.1284396648406982e-01</leafValues></_>
        <_>
          <internalNodes>
            0 -1 117 597367963 2134357265 960591191 1964203505
            1636831966 2066875535 1235261935 991049465</internalNodes>
          <leafValues>
            -7.6076751947402954e-01 3.9986708760261536e-01</leafValues></_></weakClassifiers></_>
    <!-- stage 8 -->
    <_>
      <maxWeakCount>7</maxWeakCount>
      <stageThreshold>-1.0640990734100342e+00</stageThreshold>
      <weakClassifiers>
        <_>
          <internalNodes>
            0 -1 47 -1347510102 -100597605 -1258170923 -170380073
            -1086467619 -715435691 992968869 -1080174121</internalNodes>
          <leafValues>
            -6.6902118921279907e-01 6.1641490459442139e-01</leafValues></_>
        <_>
          <internalNodes>
            0 -1 23 -67156609 -677783855 -251527467 -117047145
            1817134328 -905088576 -205169527 -85042789</internalNodes>
          <leafValues>
            -5.6553953886032104e-01 5.6171208620071411e-01</leafValues></_>
        <_>
          <internalNodes>
            0 -1 1 -491657473 -2075821 -533692369 -228354897 197294011
            -1080908869 1906503851 -138958913</internalNodes>
          <leafValues>
            -5.4721814393997192e-01 5.6203347444534302e-01</leafValues></_>
        <_>
          <internalNodes>
            0 -1 100 -796993794 -895340540 34748694 369771013 720261087
            512363949 1040330747 2133484349</internalNodes>
          <leafValues>
            -7.2065353393554688e-01 4.4924637675285339e-01</leafValues></_>
        <_>
          <internalNodes>
            0 -1 11 -204483877 -1945906621 -1067985467 -447228668
            -930117621 -1580216163 -2132157741 -8922541</internalNodes>
          <leafValues>
            -5.6166905164718628e-01 5.2201396226882935e-01</leafValues></_>
        <_>
          <internalNodes>
            0 -1 97 -454094559 -624360001 -624200227 -548857792
            -927073353 -360078973 1252006911 1084571851</internalNodes>
          <leafValues>
            -7.3499977588653564e-01 4.1519367694854736e-01</leafValues></_>
        <_>
          <internalNodes>
            0 -1 19 1368685719 464641281 553844765 -235457197
            -1467508328 -16719614 1133117783 -15507697</internalNodes>
          <leafValues>
            -6.0812598466873169e-01 4.8275527358055115e-01</leafValues></_></weakClassifiers></_>
    <!-- stage 9 -->
    <_>
      <maxWeakCount>8</maxWeakCount>
      <stageThreshold>-1.5008256435394287e+00</stageThreshold>
      <weakClassifiers>
        <_>
          <internalNodes>
            0 -1 70 -1377026 -7538482 -5509416 1594821760 -821117202
            -598942002 1561329359 1600125675</internalNodes>
          <leafValues>
            -5.6300997734069824e-01 6.2437444925308228e-01</leafValues></_>
        <_>
          <internalNodes>
            0 -1 9 -273678337 2145779308 -285212673 -1114113 201457615
            135233510 -806354945 -1074798609</internalNodes>
          <leafValues>
            -5.2232754230499268e-01 5.8093112707138062e-01</leafValues></_>
        <_>
          <internalNodes>
            0 -1 28 -217964801 59641884 -415171297 -6646658 -1970603586
            -368962262 -1088749573 -616901380</internalNodes>
          <leafValues>
            -7.2451084852218628e-01 4.0656405687332153e-01</leafValues></_>
        <_>
          <internalNodes>
            0 -1 92 -1425831487 -1878998391 67223563 -1609838450
            -2013216247 -1605777107 -2103785853 -1431581493</internalNodes>
          <leafValues>
            -5.4492503404617310e-01 5.0835162401199341e-01</leafValues></_>
        <_>
          <internalNodes>
            0 -1 42 -1823214881 1974489946 1715665853 -53292065
            -1541358588 -1145234738 633032797 -1349551285</internalNodes>
          <leafValues>
            -5.9833395481109619e-01 4.7001969814300537e-01</leafValues></_>
        <_>
          <internalNodes>
            0 -1 74 -353901342 2049932318 1351734738 1507840163
            -1184243469 1858044063 1452396683 1942473649</internalNodes>
          <leafValues>
            -7.0272296667098999e-01 4.0184849500656128e-01</leafValues></_>
        <_>
          <internalNodes>
            0 -1 37 -1084545 -618162721 1710715124 838580604 -134219841
            -17432715 -671124737 -799016567</internalNodes>
          <leafValues>
            -5.0374042987823486e-01 5.5883097648620605e-01</leafValues></_>
        <_>
          <internalNodes>
            0 -1 69 -59768869 1977974930 -1576996589 1472582514
            -387394150 -1744803567 -2134195727 64737651</internalNodes>
          <leafValues>
            -6.4525490999221802e-01 4.4364160299301147e-01</leafValues></_></weakClassifiers></_>
    <!-- stage 10 -->
    <_>
      <maxWeakCount>7</maxWeakCount>
      <stageThreshold>-9.9889022111892700e-01</stageThreshold>
      <weakClassifiers>
        <_>
          <internalNodes>
            0 -1 50 1425801284 -33554433 -1090854913 -65537 -587987720
            -196611 -1191379461 -50528258</internalNodes>
          <leafValues>
            -5.0198256969451904e-01 6.5853661298751831e-01</leafValues></_>
        <_>
          <internalNodes>
            0 -1 93 -17895682 -419773700 -189107970 -2208956 1937465855
            -340604487 -510451717 -268441092</internalNodes>
          <leafValues>
            -6.3365149497985840e-01 5.0348860025405884e-01</leafValues></_>
        <_>
          <internalNodes>
            0 -1 82 -2038236161 -673448165 -1560028769 -1145375853
            -935069641 1027324047 116320439 268424950</internalNodes>
          <leafValues>
            -6.1842584609985352e-01 4.5390588045120239e-01</leafValues></_>
        <_>
          <internalNodes>
            0 -1 121 1000045819 487805265 2138141591 1459844465
            1125814494 2021943892 1336577499 2059040474</internalNodes>
          <leafValues>
            -6.5688800811767578e-01 4.3449023365974426e-01</leafValues></_>
        <_>
          <internalNodes>
            0 -1 12 -178268169 -2142822241 33116851 1728254811
            -1424438453 -1466922944 -626668557 -15639973</internalNodes>
          <leafValues>
            -5.6300443410873413e-01 5.0818282365798950e-01</leafValues></_>
        <_>
          <internalNodes>
            0 -1 35 -1232921615 -108795628 -1593079656 -1570733023
            -508931352 -123139951 -1882223619 -13911056</internalNodes>
          <leafValues>
            -6.1059796810150146e-01 4.5085823535919189e-01</leafValues></_>
        <_>
          <internalNodes>
            0 -1 116 394432883 1058742323 1363351039 2008486483
            1126357483 -1613855843 1068136431 2132462523</internalNodes>
          <leafValues>
            -5.9698474407196045e-01 4.5301663875579834e-01</leafValues></_></weakClassifiers></_>
    <!-- stage 11 -->
    <_>
      <maxWeakCount>7</maxWeakCount>
      <stageThreshold>-7.1737253665924072e-01</stageThreshold>
      <weakClassifiers>
        <_>
          <internalNodes>
            0 -1 79 -537133057 -16641 -4456449 -12900049 -2097153
            -1615085633 -148897793 -16020342</internalNodes>
          <leafValues>
            -4.4812986254692078e-01 6.9250732660293579e-01</leafValues></_>
        <_>
          <internalNodes>
            0 -1 88 -242516617 -943589937 -170131969 -609251171
            -115543553 959052249 1106113000 1405875638</internalNodes>
          <leafValues>
            -5.5654287338256836e-01 5.1791399717330933e-01</leafValues></_>
        <_>
          <internalNodes>
            0 -1 80 -984623771 -2145243103 -1539219691 -1500957949
            -570043021 -889139177 -2096892091 -1431306241</internalNodes>
          <leafValues>
            -5.5236470699310303e-01 5.2728539705276489e-01</leafValues></_>
        <_>
          <internalNodes>
            0 -1 7 -170140217 -472135237 -534783817 -1203616971
            -106957041 -660959232 -84418889 -76187085</internalNodes>
          <leafValues>
            -5.4439622163772583e-01 5.0011318922042847e-01</leafValues></_>
        <_>
          <internalNodes>
            0 -1 62 -1090085 1596740062 1879595057 1493930395 1223231899
            1481753624 252379661 1628136859</internalNodes>
          <leafValues>
            -6.1148875951766968e-01 4.2085501551628113e-01</leafValues></_>
        <_>
          <internalNodes>
            0 -1 58 1879683263 827597078 403775485 -57247801 282072249
            1540601534 871043627 -3178933</internalNodes>
          <leafValues>
            -5.0229847431182861e-01 5.0873589515686035e-01</leafValues></_>
        <_>
          <internalNodes>
            0 -1 102 -1414900247 -178896683 -1979595771 -587005755
            -257457745 -1186003576 1217118347 -3208989</internalNodes>
          <leafValues>
            -5.8189982175827026e-01 4.5447018742561340e-01</leafValues></_></weakClassifiers></_>
    <!-- stage 12 -->
    <_>
      <maxWeakCount>8</maxWeakCount>
      <stageThreshold>-1.5002676248550415e+00</stageThreshold>
      <weakClassifiers>
        <_>
          <internalNodes>
            0 -1 53 1525611774 -17891586 -268517378 -65538 1313763071
            1859054846 -319829777 -923866113</internalNodes>
          <leafValues>
            -5.6797021627426147e-01 6.1587858200073242e-01</leafValues></_>
        <_>
          <internalNodes>
            0 -1 73 -277894145 -631792367 40750047 308086785 -670450959
            -1206910968 -1433369031 -1409332211</internalNodes>
          <leafValues>
            -5.3574001789093018e-01 5.2069193124771118e-01</leafValues></_>
        <_>
          <internalNodes>
            0 -1 109 -2019823617 -1559118917 -2080132833 -1178865194
            -1039094865 -2093054165 1586952571 522180543</internalNodes>
          <leafValues>
            -6.3443130254745483e-01 4.3146207928657532e-01</leafValues></_>
        <_>
          <internalNodes>
            0 -1 29 2071374847 -8388881 1795618807 -1443955 -8913414
            -79495552 -620446584 -82642918</internalNodes>
          <leafValues>
            -4.9875321984291077e-01 5.7122510671615601e-01</leafValues></_>
        <_>
          <internalNodes>
            0 -1 41 352468821 -788325107 553700370 2002852797
            -1153399863 -1480485953 17860993 -1309695539</internalNodes>
          <leafValues>
            -6.8400573730468750e-01 4.0063804388046265e-01</leafValues></_>
        <_>
          <internalNodes>
            0 -1 26 -1423507488 -1414996880 1775030425 -542452492
            -544290583 -37388080 -904025427 -268978784</internalNodes>
          <leafValues>
            -6.0227465629577637e-01 4.5297318696975708e-01</leafValues></_>
        <_>
          <internalNodes>
            0 -1 56 -604516353 -216539800 420692357 -749923977
            1365985689 723918850 1383299327 422694967</internalNodes>
          <leafValues>
            -6.9150245189666748e-01 3.7706741690635681e-01</leafValues></_>
        <_>
          <internalNodes>
            0 -1 118 -139472166 598426940 -201030665 2052624735
            -796172630 -99052456 -668809995 -84935681</internalNodes>
          <leafValues>
            -5.0375717878341675e-01 5.7333409786224365e-01</leafValues></_></weakClassifiers></_>
    <!-- stage 13 -->
    <_>
      <maxWeakCount>8</maxWeakCount>
      <stageThreshold>-1.6318340301513672e+00</stageThreshold>
      <weakClassifiers>
        <_>
          <internalNodes>
            0 -1 27 -143283201 -145358863 -329908241 2003959528
            -134348809 -134873095 -2752513 -34473231</internalNodes>
          <leafValues>
            -3.8252148032188416e-01 6.5528351068496704e-01</leafValues></_>
        <_>
          <internalNodes>
            0 -1 111 -1153714405 -1122005455 93672735 -1109402401
            -1534227825 -1992981189 -847064705 -5251851</internalNodes>
          <leafValues>
            -5.4547047615051270e-01 5.0719392299652100e-01</leafValues></_>
        <_>
          <internalNodes>
            0 -1 71 -479746053 -501306725 -246296507 50823867 -98636849
            1476706948 -721316471 26211327</internalNodes>
          <leafValues>
            -7.5110477209091187e-01 3.4740188717842102e-01</leafValues></_>
        <_>
          <internalNodes>
            0 -1 89 -439374077 -10534149 -926616691 1461182879
            -715879992 -1039839104 -402601784 34595003</internalNodes>
          <leafValues>
            -6.0555255413055420e-01 4.0699702501296997e-01</leafValues></_>
        <_>
          <internalNodes>
            0 -1 37 -134258517 -5382760 1995908351 -168216989 1979669307
            -33554435 -184550917 -167796595</internalNodes>
          <leafValues>
            -4.6152189373970032e-01 5.6148564815521240e-01</leafValues></_>
        <_>
          <internalNodes>
            0 -1 98 -392166400 -87046938 -41887537 -1277729849
            -1183841940 -74734871 1140915402 -711656697</internalNodes>
          <leafValues>
            -7.1586990356445312e-01 3.5983425378799438e-01</leafValues></_>
        <_>
          <internalNodes>
            0 -1 76 705358014 -360407008 570827522 -1891500028
            -1073010133 -1089797119 -1306857937 -608219732</internalNodes>
          <leafValues>
            -7.4422389268875122e-01 3.1909695267677307e-01</leafValues></_>
        <_>
          <internalNodes>
            0 -1 8 -207618226 1209243095 -267780414 134422826 -316779774
            -1014380371 -390381833 -363630749</internalNodes>
          <leafValues>
            -6.6310071945190430e-01 3.5977584123611450e-01</leafValues></_></weakClassifiers></_>
    <!-- stage 14 -->
    <_>
      <maxWeakCount>9</maxWeakCount>
      <stageThreshold>-9.5837426185607910e-01</stageThreshold>
      <weakClassifiers>
        <_>
          <internalNodes>
            0 -1 46 1440609532 -751767214 344208048 -2485966 -802597684
            1359068142 3757262 1507753951</internalNodes>
          <leafValues>
            -6.7827129364013672e-01 5.6313061714172363e-01</leafValues></_>
        <_>
          <internalNodes>
            0 -1 51 -47617 1440103214 -2 -17409 -142081 1283906806
            -131362 -553648129</internalNodes>
          <leafValues>
            -4.0650287270545959e-01 6.1652278900146484e-01</leafValues></_>
        <_>
          <internalNodes>
            0 -1 72 -271581301 790083163 -284829105 1897337613
            -573540205 319918092 -83232294 859306719</internalNodes>
          <leafValues>
            -6.2987184524536133e-01 3.9422938227653503e-01</leafValues></_>
        <_>
          <internalNodes>
            0 -1 3 -1091384577 -470286337 1643167743 2045902847
            2087974911 -402653185 -17367297 -338166273</internalNodes>
          <leafValues>
            -4.7293969988822937e-01 5.2344006299972534e-01</leafValues></_>
        <_>
          <internalNodes>
            0 -1 48 -578603073 -45066788 318843341 -15922424 -679349002
            -8356706 -1463161633 -1155004241</internalNodes>
          <leafValues>
            -5.2033609151840210e-01 5.0804758071899414e-01</leafValues></_>
        <_>
          <internalNodes>
            0 -1 119 825363967 1398227931 1409938071 1930896437
            1131562267 1807356787 1931149259 2145318847</internalNodes>
          <leafValues>
            -5.9932380914688110e-01 4.2125239968299866e-01</leafValues></_>
        <_>
          <internalNodes>
            0 -1 84 -519662595 -2126203746 -1610181263 155295797 4256387
            439517777 1375931907 1496579899</internalNodes>
          <leafValues>
            -6.3563323020935059e-01 4.0777310729026794e-01</leafValues></_>
        <_>
          <internalNodes>
            0 -1 95 -2765 -1704476 -4259843 -1086032080 1944580882
            -134250497 2008510859 -12853317</internalNodes>
          <leafValues>
            -4.8178938031196594e-01 5.2121436595916748e-01</leafValues></_>
        <_>
          <internalNodes>
            0 -1 77 1052132095 1040462614 -1971185637 -263038192
            -1279838214 1243768962 -523162434 1444147995</internalNodes>
          <leafValues>
            -6.1488187313079834e-01 4.1080528497695923e-01</leafValues></_></weakClassifiers></_>
    <!-- stage 15 -->
    <_>
      <maxWeakCount>8</maxWeakCount>
      <stageThreshold>-9.4392746686935425e-01</stageThreshold>
      <weakClassifiers>
        <_>
          <internalNodes>
            0 -1 99 -1064173444 1887043660 186286431 829832293
            -1319840853 -4514391 868100927 2000302848</internalNodes>
          <leafValues>
            -7.2965878248214722e-01 5.5002677440643311e-01</leafValues></_>
        <_>
          <internalNodes>
            0 -1 52 -396107045 -431983997 -2130649039 -1554645417
            -1595756017 -499824571 -1482559869 -1360007425</internalNodes>
          <leafValues>
            -5.3374737501144409e-01 4.7665396332740784e-01</leafValues></_>
        <_>
          <internalNodes>
            0 -1 45 1936948478 -583870534 -2135692503 -149857518
            -1258026932 -3099488 -1421768697 -145657410</internalNodes>
          <leafValues>
            -5.9714496135711670e-01 4.4013679027557373e-01</leafValues></_>
        <_>
          <internalNodes>
            0 -1 115 -1089355873 106148099 17126487 427151685
            -2129399814 160239625 -1992110085 1473218527</internalNodes>
          <leafValues>
            -7.0382100343704224e-01 3.4322944283485413e-01</leafValues></_>
        <_>
          <internalNodes>
            0 -1 2 -659030801 -199581567 324665350 -938946559 1142455295
            -341131007 -309785173 -24461302</internalNodes>
          <leafValues>
            -5.1364028453826904e-01 4.9943724274635315e-01</leafValues></_>
        <_>
          <internalNodes>
            0 -1 114 252872845 1881539843 671159101 2130866455
            -1019573274 520488231 -876118 2132720607</internalNodes>
          <leafValues>
            -6.1407941579818726e-01 3.8164585828781128e-01</leafValues></_>
        <_>
          <internalNodes>
            0 -1 32 -656454571 -746458681 -2080357997 1493259392
            -100616036 -92143096 -796149521 1353657787</internalNodes>
          <leafValues>
            -6.9152683019638062e-01 3.2256588339805603e-01</leafValues></_>
        <_>
          <internalNodes>
            0 -1 36 60532528 -1114569344 1099141341 -312493308
            -1148339229 1883471953 2091493817 -68682272</internalNodes>
          <leafValues>
            -5.9963095188140869e-01 4.0211954712867737e-01</leafValues></_></weakClassifiers></_>
    <!-- stage 16 -->
    <_>
      <maxWeakCount>8</maxWeakCount>
      <stageThreshold>-8.7757670879364014e-01</stageThreshold>
      <weakClassifiers>
        <_>
          <internalNodes>
            0 -1 65 -247070530 -57272994 25170447 -176375366 -1408958165
            -1329528465 -939489877 93393294</internalNodes>
          <leafValues>
            -6.5927654504776001e-01 5.6684052944183350e-01</leafValues></_>
        <_>
          <internalNodes>
            0 -1 57 890633557 -562023979 -721107627 -176967721
            -1023376111 -469719535 -2147383033 -47084139</internalNodes>
          <leafValues>
            -6.1128216981887817e-01 4.4374299049377441e-01</leafValues></_>
        <_>
          <internalNodes>
            0 -1 63 -33603075 1382039022 -537045761 -66444 -33706771
            -4333577 -21054241 -196609</internalNodes>
          <leafValues>
            -3.9643114805221558e-01 6.3329923152923584e-01</leafValues></_>
        <_>
          <internalNodes>
            0 -1 113 -1609137585 420511825 -1971027957 151212307
            537316023 -1977890239 168229823 1397938015</internalNodes>
          <leafValues>
            -6.5701842308044434e-01 3.8815814256668091e-01</leafValues></_>
        <_>
          <internalNodes>
            0 -1 103 -1095184644 -361176471 22677007 -1576367736
            2074960509 981567659 -117212485 -268445204</internalNodes>
          <leafValues>
            -6.4138138294219971e-01 3.3244931697845459e-01</leafValues></_>
        <_>
          <internalNodes>
            0 -1 59 1566561243 1398769742 -551973575 1368118095
            -81878534 -1826154616 209895925 152427893</internalNodes>
          <leafValues>
            -6.9356727600097656e-01 3.4278541803359985e-01</leafValues></_>
        <_>
          <internalNodes>
            0 -1 122 -132154116 -1266002612 -532516587 -1811885103
            -670183988 -2079684529 -133203750 955777023</internalNodes>
          <leafValues>
            -5.9233051538467407e-01 3.9696565270423889e-01</leafValues></_>
        <_>
          <internalNodes>
            0 -1 67 -222129841 1427096330 849411333 -682708541
            1619176654 -754724861 38463698 455558163</internalNodes>
          <leafValues>
            -6.8061852455139160e-01 3.5555875301361084e-01</leafValues></_></weakClassifiers></_>
    <!-- stage 17 -->
    <_>
      <maxWeakCount>8</maxWeakCount>
      <stageThreshold>-1.2210804224014282e+00</stageThreshold>
      <weakClassifiers>
        <_>
          <internalNodes>
            0 -1 49 1708458068 -1048510461 -670969853 -2130505728
            -241107266 -2147122677 -858348918 -392902461</internalNodes>
          <leafValues>
            -5.6719368696212769e-01 5.9461009502410889e-01</leafValues></_>
        <_>
          <internalNodes>
            0 -1 6 -17 795213643 -540747 -834928817 -131313 -1350697013
            -655387 -295567521</internalNodes>
          <leafValues>
            -4.5447847247123718e-01 5.6574916839599609e-01</leafValues></_>
        <_>
          <internalNodes>
            0 -1 94 -427595 -7463647 -17368091 -1518202687 -1435762904
            -24707 -1360728155 -1222388767</internalNodes>
          <leafValues>
            -4.3884265422821045e-01 5.6490015983581543e-01</leafValues></_>
        <_>
          <internalNodes>
            0 -1 24 -38452144 -1051397119 -935214697 -2074961023
            -662372221 -64372732 -224252770 -359359573</internalNodes>
          <leafValues>
            -5.2809715270996094e-01 5.1815569400787354e-01</leafValues></_>
        <_>
          <internalNodes>
            0 -1 106 -222280636 -85229283 -1066749717 -32779233 -5602557
            -1568243708 -497188792 -219307945</internalNodes>
          <leafValues>
            -5.8784502744674683e-01 4.4021764397621155e-01</leafValues></_>
        <_>
          <internalNodes>
            0 -1 91 -430976542 -290729917 1073812577 1151292933
            -536868863 302645256 -937221624 454119937</internalNodes>
          <leafValues>
            -6.2107193470001221e-01 4.6731296181678772e-01</leafValues></_>
        <_>
          <internalNodes>
            0 -1 17 854584183 -201545737 1090388075 -773359638
            -620767233 1290203126 -612895619 -1878130698</internalNodes>
          <leafValues>
            -4.2714914679527283e-01 6.2580466270446777e-01</leafValues></_>
        <_>
          <internalNodes>
            0 -1 104 -1861726904 1074266117 135170 1124213305
            -1064656637 -671084285 -2110086397 1262391741</internalNodes>
          <leafValues>
            -7.9001158475875854e-01 3.1834268569946289e-01</leafValues></_></weakClassifiers></_>
    <!-- stage 18 -->
    <_>
      <maxWeakCount>9</maxWeakCount>
      <stageThreshold>-1.5867786407470703e+00</stageThreshold>
      <weakClassifiers>
        <_>
          <internalNodes>
            0 -1 0 1341099808 -2031436030 -268435504 -1351880768
            2139090932 1340012449 -8917200 -293601533</internalNodes>
          <leafValues>
            -5.7522124052047729e-01 5.9862190485000610e-01</leafValues></_>
        <_>
          <internalNodes>
            0 -1 83 -2059336079 -994016235 -2130685951 -1060027835
            -2147475453 136325120 -2013228800 -805244262</internalNodes>
          <leafValues>
            -5.3383296728134155e-01 5.5302762985229492e-01</leafValues></_>
        <_>
          <internalNodes>
            0 -1 38 257 1053009 4198656 -816696490 1 -727600863
            1646273410 -1115452145</internalNodes>
          <leafValues>
            -5.2294653654098511e-01 5.8002686500549316e-01</leafValues></_>
        <_>
          <internalNodes>
            0 -1 123 1407647444 69479204 2142219546 627982636 804097826
            385810286 -1502804988 -881867318</internalNodes>
          <leafValues>
            -4.9843654036521912e-01 5.8478605747222900e-01</leafValues></_>
        <_>
          <internalNodes>
            0 -1 60 -682362600 1073873945 -1056620467 1392627974
            -1609920359 -1576480184 -1055749852 1367748853</internalNodes>
          <leafValues>
            -6.4717030525207520e-01 4.6460139751434326e-01</leafValues></_>
        <_>
          <internalNodes>
            0 -1 34 2027619332 1906966537 33287 -267222527 1912612994
            -2012626944 -261299738 -1775713212</internalNodes>
          <leafValues>
            -6.5251278877258301e-01 4.6083587408065796e-01</leafValues></_>
        <_>
          <internalNodes>
            0 -1 33 1359301554 -1877782528 20753 -774877180 -1341910836
            -637533949 -1992153069 -1715264847</internalNodes>
          <leafValues>
            -6.0961008071899414e-01 5.0004744529724121e-01</leafValues></_>
        <_>
          <internalNodes>
            0 -1 112 -486260235 -33788179 -172073 -1825192476 -134423042
            -1107296258 -1747517481 -462360715</internalNodes>
          <leafValues>
            -4.6824580430984497e-01 6.7993712425231934e-01</leafValues></_>
        <_>
          <internalNodes>
            0 -1 110 -1902424385 -336687202 -1627508997 -231792701
            -806465601 -82899058 2088669118 -644628693</internalNodes>
          <leafValues>
            -5.0380182266235352e-01 6.7794996500015259e-01</leafValues></_></weakClassifiers></_>
    <!-- stage 19 -->
    <_>
      <maxWeakCount>5</maxWeakCount>
      <stageThreshold>-5.2169013023376465e-01</stageThreshold>
      <weakClassifiers>
        <_>
          <internalNodes>
            0 -1 120 -854568303 354812193 2143261129 1966085010
            -1074259748 477919730 1593596122 1493719051</internalNodes>
          <leafValues>
            -4.4610092043876648e-01 8.2656025886535645e-01</leafValues></_>
        <_>
          <internalNodes>
            0 -1 44 -2147434111 1073741834 65671 65536 536871106 393260
            1073905870 1346453641</internalNodes>
          <leafValues>
            -6.8686038255691528e-01 6.2658762931823730e-01</leafValues></_>
        <_>
          <internalNodes>
            0 -1 13 -129822208 21037058 1097745 16793616 -2147467136
            131200 -1610612598 -503283652</internalNodes>
          <leafValues>
            -6.2645959854125977e-01 6.6641521453857422e-01</leafValues></_>
        <_>
          <internalNodes>
            0 -1 15 1651343491 99099365 752633082 -996006668 -1803901762
            340105716 -991618308 -938622752</internalNodes>
          <leafValues>
            -6.1858814954757690e-01 7.1064132452011108e-01</leafValues></_>
        <_>
          <internalNodes>
            0 -1 22 286279713 805507329 134217985 -805240512 419463176
            420026881 545298432 826310666</internalNodes>
          <leafValues>
            -7.0921707153320312e-01 6.7698246240615845e-01</leafValues></_></weakClassifiers></_></stages>
  <features>
    <_>
      <rect>
        1 5 3 1</rect></_>
    <_>
      <rect>
        1 5 5 1</rect></_>
    <_>
      <rect>
        1 9 4 2</rect></_>
    <_>
      <rect>
        2 4 4 2</rect></_>
    <_>
      <rect>
        2 5 4 1</rect></_>
    <_>
      <rect>
        2 6 4 1</rect></_>
    <_>
      <rect>
        2 7 2 1</rect></_>
    <_>
      <rect>
        2 8 2 1</rect></_>
    <_>
      <rect>
        2 9 2 1</rect></_>
    <_>
      <rect>
        2 11 4 1</rect></_>
    <_>
      <rect>
        3 4 4 3</rect></_>
    <_>
      <rect>
        3 6 2 2</rect></_>
    <_>
      <rect>
        3 7 2 1</rect></_>
    <_>
      <rect>
        3 11 1 1</rect></_>
    <_>
      <rect>
        3 11 2 1</rect></_>
    <_>
      <rect>
        4 2 4 2</rect></_>
    <_>
      <rect>
        4 4 3 2</rect></_>
    <_>
      <rect>
        4 4 4 1</rect></_>
    <_>
      <rect>
        4 7 2 2</rect></_>
    <_>
      <rect>
        4 7 5 1</rect></_>
    <_>
      <rect>
        4 7 5 2</rect></_>
    <_>
      <rect>
        4 8 3 2</rect></_>
    <_>
      <rect>
        4 8 6 1</rect></_>
    <_>
      <rect>
        4 9 2 2</rect></_>
    <_>
      <rect>
        4 11 1 1</rect></_>
    <_>
      <rect>
        4 11 2 1</rect></_>
    <_>
      <rect>
        5 4 1 1</rect></_>
    <_>
      <rect>
        5 4 2 2</rect></_>
    <_>
      <rect>
        5 5 5 2</rect></_>
    <_>
      <rect>
        5 6 2 1</rect></_>
    <_>
      <rect>
        5 6 5 2</rect></_>
    <_>
      <rect>
        5 7 4 2</rect></_>
    <_>
      <rect>
        5 8 1 2</rect></_>
    <_>
      <rect>
        5 8 4 1</rect></_>
    <_>
      <rect>
        5 12 1 1</rect></_>
    <_>
      <rect>
        6 3 1 2</rect></_>
    <_>
      <rect>
        6 4 1 1</rect></_>
    <_>
      <rect>
        6 4 2 1</rect></_>
    <_>
      <rect>
        6 6 3 2</rect></_>
    <_>
      <rect>
        6 6 4 2</rect></_>
    <_>
      <rect>
        6 7 3 1</rect></_>
    <_>
      <rect>
        6 7 3 2</rect></_>
    <_>
      <rect>
        6 7 4 1</rect></_>
    <_>
      <rect>
        6 7 4 2</rect></_>
    <_>
      <rect>
        6 8 1 1</rect></_>
    <_>
      <rect>
        6 8 3 1</rect></_>
    <_>
      <rect>
        6 8 4 1</rect></_>
    <_>
      <rect>
        6 8 4 2</rect></_>
    <_>
      <rect>
        6 9 3 1</rect></_>
    <_>
      <rect>
        6 10 1 2</rect></_>
    <_>
      <rect>
        6 12 1 1</rect></_>
    <_>
      <rect>
        6 12 2 1</rect></_>
    <_>
      <rect>
        7 4 3 3</rect></_>
    <_>
      <rect>
        7 5 3 1</rect></_>
    <_>
      <rect>
        7 5 3 2</rect></_>
    <_>
      <rect>
        7 6 3 2</rect></_>
    <_>
      <rect>
        7 7 1 1</rect></_>
    <_>
      <rect>
        7 7 3 2</rect></_>
    <_>
      <rect>
        7 7 4 1</rect></_>
    <_>
      <rect>
        7 8 1 1</rect></_>
    <_>
      <rect>
        7 9 1 1</rect></_>
    <_>
      <rect>
        7 10 1 1</rect></_>
    <_>
      <rect>
        7 11 1 1</rect></_>
    <_>
      <rect>
        7 12 1 1</rect></_>
    <_>
      <rect>
        8 5 3 1</rect></_>
    <_>
      <rect>
        8 6 2 1</rect></_>
    <_>
      <rect>
        8 6 2 2</rect></_>
    <_>
      <rect>
        8 7 1 1</rect></_>
    <_>
      <rect>
        8 7 2 2</rect></_>
    <_>
      <rect>
        8 8 1 1</rect></_>
    <_>
      <rect>
        8 8 2 1</rect></_>
    <_>
      <rect>
        8 9 1 1</rect></_>
    <_>
      <rect>
        8 10 1 1</rect></_>
    <_>
      <rect>
        8 10 2 1</rect></_>
    <_>
      <rect>
        8 11 2 1</rect></_>
    <_>
      <rect>
        9 2 2 4</rect></_>
    <_>
      <rect>
        9 4 4 2</rect></_>
    <_>
      <rect>
        9 5 1 1</rect></_>
    <_>
      <rect>
        9 6 2 1</rect></_>
    <_>
      <rect>
        9 6 2 2</rect></_>
    <_>
      <rect>
        9 6 2 3</rect></_>
    <_>
      <rect>
        9 6 4 2</rect></_>
    <_>
      <rect>
        9 7 1 1</rect></_>
    <_>
      <rect>
        9 7 1 2</rect></_>
    <_>
      <rect>
        9 8 1 1</rect></_>
    <_>
      <rect>
        9 8 2 1</rect></_>
    <_>
      <rect>
        9 8 3 1</rect></_>
    <_>
      <rect>
        9 9 2 1</rect></_>
    <_>
      <rect>
        9 9 3 1</rect></_>
    <_>
      <rect>
        9 10 1 1</rect></_>
    <_>
      <rect>
        9 10 2 1</rect></_>
    <_>
      <rect>
        9 11 1 1</rect></_>
    <_>
      <rect>
        10 2 2 4</rect></_>
    <_>
      <rect>
        10 5 2 1</rect></_>
    <_>
      <rect>
        10 6 2 3</rect></_>
    <_>
      <rect>
        10 7 2 1</rect></_>
    <_>
      <rect>
        10 9 2 1</rect></_>
    <_>
      <rect>
        10 10 1 1</rect></_>
    <_>
      <rect>
        10 11 2 1</rect></_>
    <_>
      <rect>
        11 6 2 1</rect></_>
    <_>
      <rect>
        11 6 3 1</rect></_>
    <_>
      <rect>
        11 6 3 2</rect></_>
    <_>
      <rect>
        11 8 3 2</rect></_>
    <_>
      <rect>
        12 5 1 1</rect></_>
    <_>
      <rect>
        12 5 2 2</rect></_>
    <_>
      <rect>
        12 9 3 1</rect></_>
    <_>
      <rect>
        12 11 1 1</rect></_>
    <_>
      <rect>
        13 7 2 1</rect></_>
    <_>
      <rect>
        13 8 1 1</rect></_>
    <_>
      <rect>
        13 8 2 1</rect></_>
    <_>
      <rect>
        13 8 3 1</rect></_>
    <_>
      <rect>
        13 9 2 1</rect></_>
    <_>
      <rect>
        13 11 2 1</rect></_>
    <_>
      <rect>
        14 7 1 1</rect></_>
    <_>
      <rect>
        14 7 2 1</rect></_>
    <_>
      <rect>
        14 8 1 1</rect></_>
    <_>
      <rect>
        15 7 2 1</rect></_>
    <_>
      <rect>
        15 8 2 1</rect></_>
    <_>
      <rect>
        15 8 3 1</rect></_>
    <_>
      <rect>
        16 7 1 1</rect></_>
    <_>
      <rect>
        16 7 2 1</rect></_>
    <_>
      <rect>
        16 8 2 1</rect></_>
    <_>
      <rect>
        18 6 2 2</rect></_>
    <_>
      <rect>
        21 9 1 1</rect></_></features></cascade>
</opencv_storage>
