<?xml version="1.0"?>
<opencv_storage>
<stage7>
  <maxWeakCount>7</maxWeakCount>
  <stageThreshold>-1.1511752605438232e+00</stageThreshold>
  <weakClassifiers>
    <_>
      <internalNodes>
        0 -1 2217 662169424 -1086785552 -327687 -1769552 -8390747
        -4718604 -75 -4849744</internalNodes>
      <leafValues>
        -5.0711607933044434e-01 6.8783569335937500e-01</leafValues></_>
    <_>
      <internalNodes>
        0 -1 3876 196053223 -679500901 152368407 -1684016325 193366974
        461505371 1597683711 1473922943</internalNodes>
      <leafValues>
        -6.7581564188003540e-01 5.0492668151855469e-01</leafValues></_>
    <_>
      <internalNodes>
        0 -1 980 -910771457 -541009697 402673855 -245292831 -913860097
        -275668521 -905854721 -143433433</internalNodes>
      <leafValues>
        -6.4450919628143311e-01 4.9956735968589783e-01</leafValues></_>
    <_>
      <internalNodes>
        0 -1 3105 1877161215 -783232938 -616297219 -540982140 -381554467
        -125792256 1117978871 1506607758</internalNodes>
      <leafValues>
        -7.6435214281082153e-01 4.3315652012825012e-01</leafValues></_>
    <_>
      <internalNodes>
        0 -1 2802 1945629467 -707577473 -1862053001 -33577537
        -1792855261 -2087572753 1637153571 -862985025</internalNodes>
      <leafValues>
        -5.8243268728256226e-01 5.2790683507919312e-01</leafValues></_>
    <_>
      <internalNodes>
        0 -1 2569 1438880735 -250005225 1224998751 -34495521 -601976889
        -699360396 -1610422323 -68057635</internalNodes>
      <leafValues>
        -6.1674189567565918e-01 5.1284396648406982e-01</leafValues></_>
    <_>
      <internalNodes>
        0 -1 4191 597367963 2134357265 960591191 1964203505 1636831966
        2066875535 1235261935 991049465</internalNodes>
      <leafValues>
        -7.6076751947402954e-01 3.9986708760261536e-01</leafValues></_></weakClassifiers></stage7>
</opencv_storage>
