<?xml version="1.0"?>
<opencv_storage>
<stage18>
  <maxWeakCount>9</maxWeakCount>
  <stageThreshold>-1.5867786407470703e+00</stageThreshold>
  <weakClassifiers>
    <_>
      <internalNodes>
        0 -1 591 1341099808 -2031436030 -268435504 -1351880768
        2139090932 1340012449 -8917200 -293601533</internalNodes>
      <leafValues>
        -5.7522124052047729e-01 5.9862190485000610e-01</leafValues></_>
    <_>
      <internalNodes>
        0 -1 3073 -2059336079 -994016235 -2130685951 -1060027835
        -2147475453 136325120 -2013228800 -805244262</internalNodes>
      <leafValues>
        -5.3383296728134155e-01 5.5302762985229492e-01</leafValues></_>
    <_>
      <internalNodes>
        0 -1 2274 257 1053009 4198656 -816696490 1 -727600863 1646273410
        -1115452145</internalNodes>
      <leafValues>
        -5.2294653654098511e-01 5.8002686500549316e-01</leafValues></_>
    <_>
      <internalNodes>
        0 -1 4680 1407647444 69479204 2142219546 627982636 804097826
        385810286 -1502804988 -881867318</internalNodes>
      <leafValues>
        -4.9843654036521912e-01 5.8478605747222900e-01</leafValues></_>
    <_>
      <internalNodes>
        0 -1 2592 -682362600 1073873945 -1056620467 1392627974
        -1609920359 -1576480184 -1055749852 1367748853</internalNodes>
      <leafValues>
        -6.4717030525207520e-01 4.6460139751434326e-01</leafValues></_>
    <_>
      <internalNodes>
        0 -1 2061 2027619332 1906966537 33287 -267222527 1912612994
        -2012626944 -261299738 -1775713212</internalNodes>
      <leafValues>
        -6.5251278877258301e-01 4.6083587408065796e-01</leafValues></_>
    <_>
      <internalNodes>
        0 -1 2010 1359301554 -1877782528 20753 -774877180 -1341910836
        -637533949 -1992153069 -1715264847</internalNodes>
      <leafValues>
        -6.0961008071899414e-01 5.0004744529724121e-01</leafValues></_>
    <_>
      <internalNodes>
        0 -1 3908 -486260235 -33788179 -172073 -1825192476 -134423042
        -1107296258 -1747517481 -462360715</internalNodes>
      <leafValues>
        -4.6824580430984497e-01 6.7993712425231934e-01</leafValues></_>
    <_>
      <internalNodes>
        0 -1 3888 -1902424385 -336687202 -1627508997 -231792701
        -806465601 -82899058 2088669118 -644628693</internalNodes>
      <leafValues>
        -5.0380182266235352e-01 6.7794996500015259e-01</leafValues></_></weakClassifiers></stage18>
</opencv_storage>
