<?xml version="1.0"?>
<opencv_storage>
<stage8>
  <maxWeakCount>7</maxWeakCount>
  <stageThreshold>-1.0640990734100342e+00</stageThreshold>
  <weakClassifiers>
    <_>
      <internalNodes>
        0 -1 2317 -1347510102 -100597605 -1258170923 -170380073
        -1086467619 -715435691 992968869 -1080174121</internalNodes>
      <leafValues>
        -6.6902118921279907e-01 6.1641490459442139e-01</leafValues></_>
    <_>
      <internalNodes>
        0 -1 1717 -67156609 -677783855 -251527467 -117047145 1817134328
        -905088576 -205169527 -85042789</internalNodes>
      <leafValues>
        -5.6553953886032104e-01 5.6171208620071411e-01</leafValues></_>
    <_>
      <internalNodes>
        0 -1 599 -491657473 -2075821 -533692369 -228354897 197294011
        -1080908869 1906503851 -138958913</internalNodes>
      <leafValues>
        -5.4721814393997192e-01 5.6203347444534302e-01</leafValues></_>
    <_>
      <internalNodes>
        0 -1 3490 -796993794 -895340540 34748694 369771013 720261087
        512363949 1040330747 2133484349</internalNodes>
      <leafValues>
        -7.2065353393554688e-01 4.4924637675285339e-01</leafValues></_>
    <_>
      <internalNodes>
        0 -1 1330 -204483877 -1945906621 -1067985467 -447228668
        -930117621 -1580216163 -2132157741 -8922541</internalNodes>
      <leafValues>
        -5.6166905164718628e-01 5.2201396226882935e-01</leafValues></_>
    <_>
      <internalNodes>
        0 -1 3330 -454094559 -624360001 -624200227 -548857792 -927073353
        -360078973 1252006911 1084571851</internalNodes>
      <leafValues>
        -7.3499977588653564e-01 4.1519367694854736e-01</leafValues></_>
    <_>
      <internalNodes>
        0 -1 1689 1368685719 464641281 553844765 -235457197 -1467508328
        -16719614 1133117783 -15507697</internalNodes>
      <leafValues>
        -6.0812598466873169e-01 4.8275527358055115e-01</leafValues></_></weakClassifiers></stage8>
</opencv_storage>
