<?xml version="1.0"?>
<opencv_storage>
<stage17>
  <maxWeakCount>8</maxWeakCount>
  <stageThreshold>-1.2210804224014282e+00</stageThreshold>
  <weakClassifiers>
    <_>
      <internalNodes>
        0 -1 2344 1708458068 -1048510461 -670969853 -2130505728
        -241107266 -2147122677 -858348918 -392902461</internalNodes>
      <leafValues>
        -5.6719368696212769e-01 5.9461009502410889e-01</leafValues></_>
    <_>
      <internalNodes>
        0 -1 999 -17 795213643 -540747 -834928817 -131313 -1350697013
        -655387 -295567521</internalNodes>
      <leafValues>
        -4.5447847247123718e-01 5.6574916839599609e-01</leafValues></_>
    <_>
      <internalNodes>
        0 -1 3284 -427595 -7463647 -17368091 -1518202687 -1435762904
        -24707 -1360728155 -1222388767</internalNodes>
      <leafValues>
        -4.3884265422821045e-01 5.6490015983581543e-01</leafValues></_>
    <_>
      <internalNodes>
        0 -1 1743 -38452144 -1051397119 -935214697 -2074961023
        -662372221 -64372732 -224252770 -359359573</internalNodes>
      <leafValues>
        -5.2809715270996094e-01 5.1815569400787354e-01</leafValues></_>
    <_>
      <internalNodes>
        0 -1 3746 -222280636 -85229283 -1066749717 -32779233 -5602557
        -1568243708 -497188792 -219307945</internalNodes>
      <leafValues>
        -5.8784502744674683e-01 4.4021764397621155e-01</leafValues></_>
    <_>
      <internalNodes>
        0 -1 3127 -430976542 -290729917 1073812577 1151292933 -536868863
        302645256 -937221624 454119937</internalNodes>
      <leafValues>
        -6.2107193470001221e-01 4.6731296181678772e-01</leafValues></_>
    <_>
      <internalNodes>
        0 -1 1617 854584183 -201545737 1090388075 -773359638 -620767233
        1290203126 -612895619 -1878130698</internalNodes>
      <leafValues>
        -4.2714914679527283e-01 6.2580466270446777e-01</leafValues></_>
    <_>
      <internalNodes>
        0 -1 3675 -1861726904 1074266117 135170 1124213305 -1064656637
        -671084285 -2110086397 1262391741</internalNodes>
      <leafValues>
        -7.9001158475875854e-01 3.1834268569946289e-01</leafValues></_></weakClassifiers></stage17>
</opencv_storage>
