<?xml version="1.0"?>
<opencv_storage>
<stage11>
  <maxWeakCount>7</maxWeakCount>
  <stageThreshold>-7.1737253665924072e-01</stageThreshold>
  <weakClassifiers>
    <_>
      <internalNodes>
        0 -1 3057 -537133057 -16641 -4456449 -12900049 -2097153
        -1615085633 -148897793 -16020342</internalNodes>
      <leafValues>
        -4.4812986254692078e-01 6.9250732660293579e-01</leafValues></_>
    <_>
      <internalNodes>
        0 -1 3108 -242516617 -943589937 -170131969 -609251171 -115543553
        959052249 1106113000 1405875638</internalNodes>
      <leafValues>
        -5.5654287338256836e-01 5.1791399717330933e-01</leafValues></_>
    <_>
      <internalNodes>
        0 -1 3058 -984623771 -2145243103 -1539219691 -1500957949
        -570043021 -889139177 -2096892091 -1431306241</internalNodes>
      <leafValues>
        -5.5236470699310303e-01 5.2728539705276489e-01</leafValues></_>
    <_>
      <internalNodes>
        0 -1 1020 -170140217 -472135237 -534783817 -1203616971
        -106957041 -660959232 -84418889 -76187085</internalNodes>
      <leafValues>
        -5.4439622163772583e-01 5.0011318922042847e-01</leafValues></_>
    <_>
      <internalNodes>
        0 -1 2617 -1090085 1596740062 1879595057 1493930395 1223231899
        1481753624 252379661 1628136859</internalNodes>
      <leafValues>
        -6.1148875951766968e-01 4.2085501551628113e-01</leafValues></_>
    <_>
      <internalNodes>
        0 -1 2571 1879683263 827597078 403775485 -57247801 282072249
        1540601534 871043627 -3178933</internalNodes>
      <leafValues>
        -5.0229847431182861e-01 5.0873589515686035e-01</leafValues></_>
    <_>
      <internalNodes>
        0 -1 3517 -1414900247 -178896683 -1979595771 -587005755
        -257457745 -1186003576 1217118347 -3208989</internalNodes>
      <leafValues>
        -5.8189982175827026e-01 4.5447018742561340e-01</leafValues></_></weakClassifiers></stage11>
</opencv_storage>
