<?xml version="1.0"?>
<opencv_storage>
<stage14>
  <maxWeakCount>9</maxWeakCount>
  <stageThreshold>-9.5837426185607910e-01</stageThreshold>
  <weakClassifiers>
    <_>
      <internalNodes>
        0 -1 2316 1440609532 -751767214 344208048 -2485966 -802597684
        1359068142 3757262 1507753951</internalNodes>
      <leafValues>
        -6.7827129364013672e-01 5.6313061714172363e-01</leafValues></_>
    <_>
      <internalNodes>
        0 -1 2369 -47617 1440103214 -2 -17409 -142081 1283906806 -131362
        -553648129</internalNodes>
      <leafValues>
        -4.0650287270545959e-01 6.1652278900146484e-01</leafValues></_>
    <_>
      <internalNodes>
        0 -1 2862 -271581301 790083163 -284829105 1897337613 -573540205
        319918092 -83232294 859306719</internalNodes>
      <leafValues>
        -6.2987184524536133e-01 3.9422938227653503e-01</leafValues></_>
    <_>
      <internalNodes>
        0 -1 925 -1091384577 -470286337 1643167743 2045902847 2087974911
        -402653185 -17367297 -338166273</internalNodes>
      <leafValues>
        -4.7293969988822937e-01 5.2344006299972534e-01</leafValues></_>
    <_>
      <internalNodes>
        0 -1 2331 -578603073 -45066788 318843341 -15922424 -679349002
        -8356706 -1463161633 -1155004241</internalNodes>
      <leafValues>
        -5.2033609151840210e-01 5.0804758071899414e-01</leafValues></_>
    <_>
      <internalNodes>
        0 -1 4299 825363967 1398227931 1409938071 1930896437 1131562267
        1807356787 1931149259 2145318847</internalNodes>
      <leafValues>
        -5.9932380914688110e-01 4.2125239968299866e-01</leafValues></_>
    <_>
      <internalNodes>
        0 -1 3087 -519662595 -2126203746 -1610181263 155295797 4256387
        439517777 1375931907 1496579899</internalNodes>
      <leafValues>
        -6.3563323020935059e-01 4.0777310729026794e-01</leafValues></_>
    <_>
      <internalNodes>
        0 -1 3297 -2765 -1704476 -4259843 -1086032080 1944580882
        -134250497 2008510859 -12853317</internalNodes>
      <leafValues>
        -4.8178938031196594e-01 5.2121436595916748e-01</leafValues></_>
    <_>
      <internalNodes>
        0 -1 3032 1052132095 1040462614 -1971185637 -263038192
        -1279838214 1243768962 -523162434 1444147995</internalNodes>
      <leafValues>
        -6.1488187313079834e-01 4.1080528497695923e-01</leafValues></_></weakClassifiers></stage14>
</opencv_storage>
