<?xml version="1.0"?>
<opencv_storage>
<stage10>
  <maxWeakCount>7</maxWeakCount>
  <stageThreshold>-9.9889022111892700e-01</stageThreshold>
  <weakClassifiers>
    <_>
      <internalNodes>
        0 -1 2367 1425801284 -33554433 -1090854913 -65537 -587987720
        -196611 -1191379461 -50528258</internalNodes>
      <leafValues>
        -5.0198256969451904e-01 6.5853661298751831e-01</leafValues></_>
    <_>
      <internalNodes>
        0 -1 3266 -17895682 -419773700 -189107970 -2208956 1937465855
        -340604487 -510451717 -268441092</internalNodes>
      <leafValues>
        -6.3365149497985840e-01 5.0348860025405884e-01</leafValues></_>
    <_>
      <internalNodes>
        0 -1 3072 -2038236161 -673448165 -1560028769 -1145375853
        -935069641 1027324047 116320439 268424950</internalNodes>
      <leafValues>
        -6.1842584609985352e-01 4.5390588045120239e-01</leafValues></_>
    <_>
      <internalNodes>
        0 -1 4308 1000045819 487805265 2138141591 1459844465 1125814494
        2021943892 1336577499 2059040474</internalNodes>
      <leafValues>
        -6.5688800811767578e-01 4.3449023365974426e-01</leafValues></_>
    <_>
      <internalNodes>
        0 -1 1356 -178268169 -2142822241 33116851 1728254811 -1424438453
        -1466922944 -626668557 -15639973</internalNodes>
      <leafValues>
        -5.6300443410873413e-01 5.0818282365798950e-01</leafValues></_>
    <_>
      <internalNodes>
        0 -1 2188 -1232921615 -108795628 -1593079656 -1570733023
        -508931352 -123139951 -1882223619 -13911056</internalNodes>
      <leafValues>
        -6.1059796810150146e-01 4.5085823535919189e-01</leafValues></_>
    <_>
      <internalNodes>
        0 -1 4182 394432883 1058742323 1363351039 2008486483 1126357483
        -1613855843 1068136431 2132462523</internalNodes>
      <leafValues>
        -5.9698474407196045e-01 4.5301663875579834e-01</leafValues></_></weakClassifiers></stage10>
</opencv_storage>
