<?xml version="1.0"?>
<opencv_storage>
<stage7>
  <maxWeakCount>5</maxWeakCount>
  <stageThreshold>-4.3210193514823914e-01</stageThreshold>
  <weakClassifiers>
    <_>
      <internalNodes>
        0 -1 74722 1.8958254077006131e-04</internalNodes>
      <leafValues>
        5.6056630611419678e-01 -9.3002915382385254e-01</leafValues></_>
    <_>
      <internalNodes>
        0 -1 16604 -5.0231218338012695e-01</internalNodes>
      <leafValues>
        6.3098406791687012e-01 -5.2783727645874023e-01</leafValues></_>
    <_>
      <internalNodes>
        0 -1 47821 -1.0209052264690399e-01</internalNodes>
      <leafValues>
        5.7088440656661987e-01 -5.3870505094528198e-01</leafValues></_>
    <_>
      <internalNodes>
        0 -1 77837 1.0518734052311629e-04</internalNodes>
      <leafValues>
        2.7734988927841187e-01 -8.8614082336425781e-01</leafValues></_>
    <_>
      <internalNodes>
        0 -1 77695 -2.1579276653937995e-04</internalNodes>
      <leafValues>
        -9.4933456182479858e-01 1.8219955265522003e-01</leafValues></_></weakClassifiers></stage7>
</opencv_storage>
