<?xml version="1.0"?>
<opencv_storage>
<stage11>
  <maxWeakCount>7</maxWeakCount>
  <stageThreshold>-7.1648567914962769e-01</stageThreshold>
  <weakClassifiers>
    <_>
      <internalNodes>
        0 -1 80324 2.6429485296830535e-04</internalNodes>
      <leafValues>
        5.3092783689498901e-01 -9.0322577953338623e-01</leafValues></_>
    <_>
      <internalNodes>
        0 -1 77069 1.0963083477690816e-03</internalNodes>
      <leafValues>
        -8.6212736368179321e-01 2.8789910674095154e-01</leafValues></_>
    <_>
      <internalNodes>
        0 -1 82809 -1.4510852633975446e-04</internalNodes>
      <leafValues>
        -9.4996237754821777e-01 2.2426740825176239e-01</leafValues></_>
    <_>
      <internalNodes>
        0 -1 71882 2.6991437189280987e-03</internalNodes>
      <leafValues>
        -5.0937116146087646e-01 4.9232596158981323e-01</leafValues></_>
    <_>
      <internalNodes>
        0 -1 58426 -2.0262964535504580e-03</internalNodes>
      <leafValues>
        3.5481485724449158e-01 -6.1721301078796387e-01</leafValues></_>
    <_>
      <internalNodes>
        0 -1 3674 -1.4167113229632378e-02</internalNodes>
      <leafValues>
        4.7729593515396118e-01 -4.6970716118812561e-01</leafValues></_>
    <_>
      <internalNodes>
        0 -1 82633 -1.6964157111942768e-04</internalNodes>
      <leafValues>
        -7.8734457492828369e-01 2.9883709549903870e-01</leafValues></_></weakClassifiers></stage11>
</opencv_storage>
