<?xml version="1.0"?>
<opencv_storage>
<stage16>
  <maxWeakCount>8</maxWeakCount>
  <stageThreshold>-7.6978039741516113e-01</stageThreshold>
  <weakClassifiers>
    <_>
      <internalNodes>
        0 -1 78275 1.2227262777741998e-04</internalNodes>
      <leafValues>
        -6.8817204236984253e-01 5.3567624092102051e-01</leafValues></_>
    <_>
      <internalNodes>
        0 -1 49140 -1.4368622214533389e-04</internalNodes>
      <leafValues>
        -6.1701226234436035e-01 3.7244939804077148e-01</leafValues></_>
    <_>
      <internalNodes>
        0 -1 62664 -1.5170779079198837e-03</internalNodes>
      <leafValues>
        3.0880811810493469e-01 -7.3563909530639648e-01</leafValues></_>
    <_>
      <internalNodes>
        0 -1 79964 8.9285644935443997e-04</internalNodes>
      <leafValues>
        -8.1455016136169434e-01 1.9753612577915192e-01</leafValues></_>
    <_>
      <internalNodes>
        0 -1 54265 3.1676277285441756e-04</internalNodes>
      <leafValues>
        1.8573278188705444e-01 -9.0854263305664062e-01</leafValues></_>
    <_>
      <internalNodes>
        0 -1 53353 -2.9356335289776325e-03</internalNodes>
      <leafValues>
        1.3571831583976746e-01 -9.2756181955337524e-01</leafValues></_>
    <_>
      <internalNodes>
        0 -1 4242 -5.5429581552743912e-03</internalNodes>
      <leafValues>
        3.4955739974975586e-01 -4.8887386918067932e-01</leafValues></_>
    <_>
      <internalNodes>
        0 -1 63337 -1.8077620188705623e-04</internalNodes>
      <leafValues>
        -9.1372686624526978e-01 1.9648244976997375e-01</leafValues></_></weakClassifiers></stage16>
</opencv_storage>
